/*
Esse arquivo contém só o código para carregar um modelo de forma fixa no device, um dataset de teste e para realizar um teste se o device consegue aprender
*/

#define NumberOf(arg) ((unsigned int)(sizeof(arg) / sizeof(arg[0]))) // calculates the number of layers (in this case 4)

#define _1_OPTIMIZE 0B01011010 // Highly-Recommended Optimization For RAM
#define _2_OPTIMIZE 0B00100000 // MULTIPLE_BIASES_PER_LAYER 


#define ACTIVATION__PER_LAYER  // DEFAULT KEYWORD for allowing the use of any Activation-Function per "Layer-to-Layer".
#define ReLU                   // 0
#define Softmax                // 1

#include <NeuralNetwork.h>

unsigned int layers[] = {20, 16, 8, 6}; // 4 layers (1st)layer with 3 input neurons (2nd & 3rd)layer 9 hidden neurons each and (4th)layer with 1 output neuron
byte Actv_Functions[] = {0, 0, 1};      // 0 = ReLU, 1 = Softmax
float *output;                          // 4th layer's output

float biases[] = {
  -0.042701967, 0.34170863, 0.44121084, 0.18469329, 0.07429001, 0.037393782, 0.08623015, -0.2889944, 0.20989978, 0.19008951, 0.0676257, 0.19457616, 0.14333266, 0.15957156, 0.13817158, 0.3233372, 
  0.05153432, 0.10334184, 0.31067836, -0.05276156, -0.10387087, 0.07216197, 0.12189184, -0.0029788306, 
  0.026805317, -0.2291436, -0.2723658, 0.10984491, 0.2862673, 0.012778176, 
};

float weights[] = {
  0.27685285, 0.022836886, -0.07139334, 0.51887596, -0.08704708, -0.314498, 0.56033665, 0.20840052, 0.14321531, 0.03805903, 0.08386487, -0.08339847, 0.1862553, 0.07190731, -0.10341537, -0.016672991, 0.8764801, 0.2926347, 0.55595815, -0.5350627, 
  0.03419656, -0.03747988, 0.079029255, -0.28491774, 0.06540959, 0.502066, 0.44947422, 0.50785404, -0.2322425, 0.06668622, -0.23391211, 0.61191386, 0.06255472, -0.31934276, 0.032125805, 0.4289824, -0.58481, -0.041951567, 0.0076552727, 0.8493507, 
  0.02355638, 0.004548826, 0.06760877, 0.63664037, 0.5508518, 0.3838163, 0.21993588, 0.021155648, -0.09194081, 0.38323042, 0.0039155725, 0.012965317, -0.5087108, 0.08603222, -0.5502165, 0.57569325, -0.15784138, -0.031150509, -0.18473417, 0.8442696, 
  -0.39345607, -0.010110871, 0.4799706, -0.55155724, 0.02262979, 0.115823604, -0.0038964958, -0.40753448, -0.58945686, -0.51109344, 0.07802486, -0.106737316, -0.098516, 0.64223254, 0.34421012, 0.057443902, 0.04615495, 0.06828493, 0.1700834, 0.21829203, 
  0.14325239, 0.032866195, 0.09353276, 0.00096502353, 0.54421246, -0.24193817, 0.10264061, -0.07884034, 0.04462244, 0.21301673, 0.30568382, 0.19412751, -0.42158782, -0.16059066, -0.5746547, -0.2684384, -0.4757141, -0.25278133, -0.0858088, 0.44284892, 
  0.3206472, -0.13426833, 0.0072115804, 0.105372526, -0.31575024, 0.030856613, -0.33156744, 0.2612024, -0.30594978, 0.5997254, 0.4580406, 0.077823766, -0.39817816, -0.47352764, -0.49632442, -0.24841313, 0.41533926, -0.24307124, -0.29868138, 0.28386143, 
  -0.20543848, 0.21846132, 0.10532339, -0.14297417, 0.3904943, -0.2527815, 0.16697007, -0.18202217, 0.20511165, 0.26138726, -0.21552995, 0.25638047, 0.36099875, -0.2416477, -0.21278702, -0.09905049, -0.15795726, -0.2283124, -0.15461424, 0.21078254, 
  -0.06544295, -0.104815565, 0.18161201, -0.22832392, -0.36417234, 0.35133308, -0.292268, -0.2083725, -0.23583151, 0.74328667, -0.0630578, -0.046377584, 0.18681163, -0.15582366, -0.1710765, -0.21769303, 0.58382887, 0.35433823, 0.24421878, -0.105834916, 
  0.13582394, -0.13746448, -0.0487027, -0.10163754, 0.48268977, -0.20168515, -0.4049257, 0.66639525, 0.4615223, -0.22571851, 0.035369642, 0.32225576, -0.25267452, 0.03217357, -0.16222456, -0.16559185, -0.5175722, 0.24406838, 0.09403307, 0.20857503, 
  -1.217836, -0.32324985, 0.23543455, 0.19925395, 0.027589688, -0.27401263, -0.20804606, -0.32234332, 0.046134412, -0.43304074, -0.34672585, -0.15836695, -0.19069499, 0.383935, 0.18193763, -0.23188107, 0.34570944, 0.18906792, -0.11845418, -0.29093817, 
  -0.2713193, -0.03953061, -0.1380806, 0.5933189, 0.29192555, 0.09365369, 0.39503065, -0.0995627, 0.64277923, 0.3917911, 0.3157209, 0.066703275, 0.13911484, 0.17896467, 0.36442968, 0.54629004, 0.7958083, -0.39435726, 0.022456218, -0.28446802, 
  1.0493103, -0.2782468, -0.25350454, -0.03802574, -0.32520792, -0.31899995, -0.34218216, 0.05541039, -0.290936, -0.396294, -0.016239585, -0.38093275, 0.021707673, -0.03402404, 0.33962122, 0.21420853, 0.17997749, -0.15237743, -0.010271305, -0.41076273, 
  0.10836888, -0.4038958, 0.051709834, 0.15430222, 0.47615877, 0.6726919, -0.026483899, 0.57962924, -0.055194516, 0.14612705, 0.40776443, -0.11500931, -0.30061135, 0.105200775, 0.37322044, 0.29308608, -0.35802868, -0.18383457, 0.13284086, -0.1499395, 
  0.24353778, 0.02742188, 0.3299941, 0.321251, 0.3791384, 0.23453796, 0.6522109, -0.41813523, -0.101462215, 0.7680093, 0.3563532, 0.19870159, -0.008156857, -0.3555834, 0.020047193, -0.111910716, 0.47526193, -0.11538227, 0.2452171, -0.5266511, 
  0.75767606, 0.35591096, -0.2509596, 0.10147813, -0.36072946, 0.30750564, -0.34018588, -0.37737194, 0.29559094, -0.09525515, -0.18488196, -0.16971256, 0.09113029, 0.46133915, 0.046415176, 0.056407664, -0.05344332, -0.36156198, 0.5179483, 0.02942147, 
  -0.35780054, -0.20832951, -0.31722572, -0.2776435, 0.089447424, 0.10906239, 0.19369619, -0.2749931, -0.6747525, -0.08316959, -0.5946773, -0.29564795, 0.16120024, 0.30115834, 0.1705822, -0.54862183, -0.20574142, -0.34193075, -0.47256425, -0.47422484, 

  -0.44359472, 0.13912804, 0.40146837, 0.12123769, 0.338881, -0.50380313, 0.023152364, -0.83549863, 0.24459787, -0.6475695, 0.25477174, 0.29292357, 0.6249515, -0.4198309, 0.36314556, -0.093940064, 
  0.19144146, 0.3482578, -0.53103256, 0.5173055, -0.18083717, -0.12571481, -0.51815623, 0.19686808, -0.038915724, -0.16057056, -0.46736568, 0.13295762, 0.4509216, -0.08357884, 0.08510125, 0.26602975, 
  -0.056528986, 0.18838848, 0.04584193, 0.78272474, -0.4404015, -0.37777016, -0.4955648, -0.7653022, 0.1264044, 0.8342075, 0.1632087, 0.34770176, 0.2217964, 0.19222257, 0.3967871, 0.9011968, 
  -0.667573, 0.26778805, 0.27237555, 0.38404948, 0.59934646, 0.42241853, 0.34732145, 0.00021314921, 0.2104257, 0.047937278, -0.1977535, -0.436172, -0.2852133, -0.19354622, 0.22072653, 0.11946254, 
  0.058558278, 0.3895028, 0.67625344, -0.11069777, -0.22733699, 0.19073384, -0.6439598, 0.67706984, -0.1604695, 0.362677, 0.17837434, -0.23702052, 0.5737566, 0.23361981, -0.5840659, 0.27640066, 
  -0.41227698, 0.48503518, 0.51279706, -0.41267765, 0.5753771, 0.2816817, 0.26739943, -0.37628293, 0.38995042, -0.17935912, -0.24978885, -0.048134007, 0.073139824, 0.2716807, -0.087427214, -0.5822893, 
  -0.24811505, 0.3196568, -0.044194084, -0.03774591, 0.545272, -0.49259537, 0.060757656, 0.012500263, 0.49051762, -0.38468716, -0.36876392, 0.11987569, 0.47965294, 0.37403905, -0.42632574, 0.16886745, 
  0.6053651, 0.14663033, 0.58365464, -0.5029707, 0.340553, 0.23084514, 0.26293015, 0.5551497, -0.7466942, 0.39640474, 0.8993509, 0.026155394, -0.10059515, 0.6803526, -0.25320202, -0.37228927, 

  -0.07585335, -0.4601519, -0.64549047, 0.78959143, 0.4162637, 0.69950813, 0.062145784, 0.21318918, 
  0.3653983, -1.3332326, 0.067367226, -0.6105841, 0.65898097, 0.23972578, -0.1201826, 0.52989113, 
  -1.3926804, 0.2533514, -0.9797143, 0.18325219, 0.60025376, 0.39403412, -0.5285327, 0.8663889, 
  -0.62200314, -0.34930703, 0.5823785, 0.6086883, -1.1894758, 0.031945065, 0.56831145, -0.2061252, 
  -0.7713876, 0.511819, 0.3708215, -0.24784528, -0.5799666, 0.12273684, -0.7259918, -0.6209896, 
  0.1333522, 0.28732952, 0.41790923, 0.09375996, 0.7306386, -0.83261544, -0.689759, 0.10046362, 
};

float x_test[400][20] = {
  {-0.24638761721232527, -0.13697895076538713, 1.6684624516750128, -0.7420607986679276, -0.8140563000123013, -0.15031262785628294, -0.7593295187684431, -0.8197864109582434, -0.1645804959510802, -0.7814069447810641, -0.880627417482358, 0.3093366227715936, 0.5326574912924187, 0.7221363395518254, 0.6552186937750394, -0.6998985689333508, -0.6846382999667974, -0.7642241440738259, -0.398983203730827, -0.7840089281363037},
  {0.16423499815464893, 0.11105901374053725, -0.17554768267736323, -0.8245443537216602, -0.9082985072225724, -0.8126066823485392, -0.8402119134679892, -0.9085946006199105, -0.8202804640312892, -0.7814069447810641, -0.880627417482358, -0.847014092888088, 0.6724462099780666, 0.862408076285036, 0.6794268382719457, -0.8934911033897813, -0.6916241672951252, -0.7739749786775394, -0.6844980667596148, -0.8333582026510952},
  {0.014186506140874017, -0.20474034577547343, -0.15911066986177555, -0.8655610496128516, -0.9132080945678479, -0.8550991224981684, -0.8581455551268974, -0.9133972531517348, -0.8629260608695166, -0.8643673273992531, -0.9300031542676999, -0.8235434849124036, 0.8932402473311756, 0.816324419788314, 0.7658496844394643, -0.9097822672667767, -0.6930665197291863, -0.7733746995767337, -0.6890021038277316, -0.8318770244366305},
  {-0.059637211302454585, -0.365578646332598, -0.14795977635270807, -0.8676197570830687, -0.9198575780221394, -0.8654720224806751, -0.8601993051151166, -0.9210860042234342, -0.876002064959379, -0.8631726375930874, -0.9300031542676999, -0.8235434849124036, 0.8932402473311756, 0.816324419788314, 0.7658496844394643, -0.9047716477360079, -0.6930644780466104, -0.7714787897172714, -0.6899626497074947, -0.8366662695953598},
  {0.004908083534584319, -0.24878511775370585, -0.3599798484765793, -0.865635575380434, -0.9082737962371135, -0.8922344483915137, -0.8574568291439154, -0.9035550928270628, -0.8964047936832347, -0.8631726375930874, -0.9027851487967185, -0.914671320937106, 0.8956448805100953, 0.8245771981668724, 0.7908835919716969, -0.9066041063912522, -0.6930654025821165, -0.7725630601700919, -0.6894671718412768, -0.8319900006738543},
  {0.06735065640002182, -0.022666568597689483, -0.08406917728788817, -0.8669788889692548, -0.9141857303911133, -0.8612337444508872, -0.8585740249911262, -0.910815738664614, -0.8687561191579328, -0.8617888418265499, -0.9027851487967185, -0.8304717820650384, 0.9006115860479876, 0.8388101739639179, 0.7908835919716969, -0.9186831229071825, -0.6930927149018575, -0.7745350439074222, -0.6899676053871899, -0.8356563998236058},
  {0.07483622136370167, -0.01410513091750878, 0.09078260359098932, -0.8700186666591894, -0.9259975217521128, -0.8908722155435106, -0.8619014876678178, -0.9194269266560803, -0.9010091388401786, -0.8617888418265499, -0.9149345831231945, -0.8304717820650384, 0.9020684760705329, 0.8752745581121225, 0.8044494639214164, -0.9311191520791872, -0.6931392883779748, -0.7752031641251197, -0.6922484344409287, -0.8382965936665883},
  {0.0016002070964878752, -0.1798605122957521, -0.1357875401769879, -0.8695177349373159, -0.9373687731452931, -0.9088766147580869, -0.8603562228583375, -0.9355205923435193, -0.9139456817168988, -0.8680461242668716, -0.9312690289045988, -0.89902379520259, 0.9009164250473811, 0.8708205811637142, 0.8044494639214164, -0.928593864612185, -0.6931286176973424, -0.7748629294455385, -0.6929295700891697, -0.8350628574434318},
  {-0.02788899894142944, -0.07985212910350194, -0.09414345837673058, -0.8721691718676454, -0.9251074885608729, -0.9120644655823787, -0.864338004696947, -0.9195719951012061, -0.916232386779004, -0.8680461242668716, -0.9150412360554306, -0.89902379520259, 0.8972216377490401, 0.8708205811637142, 0.8277477277625863, -0.9322659039468041, -0.6931529637990017, -0.7749681346314773, -0.6933207534236278, -0.8413130968771505},
  {0.01789975401165887, 0.17946183104507307, 0.16537010723058146, -0.875710483012625, -0.9470462277477407, -0.9226337309844543, -0.8681904131151615, -0.9471580698591421, -0.9295816382501141, -0.8726334451569799, -0.9150412360554306, -0.8753022063564102, 0.8972216377490401, 0.8785083212271615, 0.8495762670488306, -0.9401387505147794, -0.6932113636251338, -0.7754738161422173, -0.693574033707668, -0.8457176630613974},
  {0.05846806874959919, 0.06036842064761444, 0.18068803997184169, -0.8766285495406696, -0.9371183605341931, -0.9234862640771745, -0.8685803728088644, -0.9324954964595695, -0.9303653981934099, -0.8726334451569799, -0.9247035665216031, -0.8753022063564102, 0.9057204104264345, 0.878146695541303, 0.8559404953953919, -0.942014513620321, -0.6932222654396426, -0.7756897677955211, -0.6935064112056505, -0.8456011613627452},
  {0.06638035546721224, -0.10252995433271918, -0.01041384307036706, -0.8743909044544484, -0.9590203117886021, -0.9098748275362406, -0.8659438292846948, -0.9585564283133491, -0.9147424821892156, -0.8730341176574583, -0.9602775989196387, -0.8942148996299845, 0.9042750175347877, 0.878146695541303, 0.8260111774145372, -0.9442987756813848, -0.6931978037710449, -0.7761711468291482, -0.6934498714054955, -0.8409590974906708},
  {0.0007928802825083299, -0.13354979813134338, -0.060012354867979185, -0.8708775181858986, -0.9562778102212554, -0.9142650433392773, -0.8631380579689185, -0.9572864980333958, -0.9200269150837379, -0.8680869683628087, -0.9602775989196387, -0.8959404909546409, 0.8909264909955289, 0.8686012326687889, 0.8260111774145372, -0.9410729438764822, -0.6931481485099078, -0.7759031071304373, -0.6935614192502632, -0.8393829202010749},
  {-0.07717166079838841, -0.24481966991759796, -0.01831000144254981, -0.8723908548252232, -0.9460645331152695, -0.9165600417875222, -0.8654429140782399, -0.9476710264479866, -0.9257230664584098, -0.8680869683628087, -0.9673519127178641, -0.9024269256499856, 0.8841535531873879, 0.8329072785833895, 0.8030126140772217, -0.9336071337055023, -0.6931194108645946, -0.7745053584712087, -0.6937653229438897, -0.8420949150447514},
  {0.015530580030931452, -0.030410808544334228, 0.20715110969192493, -0.870565798116768, -0.9098257137707547, -0.8979694126140018, -0.8624244996469508, -0.9008259991343812, -0.9084820864431031, -0.8716981263791065, -0.9053195909684728, -0.872158972981282, 0.8841535531873879, 0.8329072785833895, 0.8030126140772217, -0.9234259882450205, -0.6931477632867801, -0.7742516469430432, -0.6920194369873931, -0.8385114315183647},
  {0.1059360956362789, 0.31402889572022835, 0.4067513971815042, -0.854989600682296, -0.8914830198518686, -0.8796439639401836, -0.8566805650390766, -0.9076717521000724, -0.8976166935135955, -0.8299224397896022, -0.811844248585367, -0.7628325225447826, 0.8433583771380975, 0.8155272716265454, 0.8326494176503367, -0.8984755028495669, -0.6928207858961412, -0.7708674280536134, -0.6883362406832777, -0.8430256637737615},
  {0.5208025855246934, -0.04252127805108769, 0.1284567984908863, -0.7382360043400396, -0.6550764639956255, -0.5065532735198058, -0.7330021692128463, -0.6625222557199347, -0.4985731004409345, -0.6849793601669176, -0.5356947205557722, -0.38495603020861113, 0.8542411816761274, 0.7537375349091133, 0.6779694711159464, -0.7015360833745048, -0.6836518591041563, -0.7335045464244658, -0.6169499449887293, -0.7314583193491939},
  {-0.17307815784003228, -0.13628849366630738, -0.2893083746292338, -0.8449284437673892, -0.800704091077077, -0.7354903681575475, -0.8334972065577885, -0.782649012486009, -0.7106707364063485, -0.863019619154531, -0.8653756584110551, -0.8173735073173619, 0.8542411816761274, 0.7537375349091133, 0.6779694711159464, -0.8315825270927591, -0.6923521619615125, -0.7623473120547041, -0.6721996015125331, -0.8034732698015532},
  {0.1982395124647575, 0.3482189707407414, 0.44698154448406285, -0.8672361187567649, -0.9299891417486729, -0.8961699496230464, -0.860346058814555, -0.9257362206688562, -0.8974941849881806, -0.8625685710447197, -0.8653756584110551, -0.8173735073173619, 0.8913502895430929, 0.8979264418180988, 0.8667728972706263, -0.9026239971199599, -0.6930080043361158, -0.7727608047558517, -0.688720170704728, -0.8382656449593925},
  {-0.04728661980460402, -0.20284090260881146, 0.2510542764516947, -0.8127533699442548, -0.7778202860212082, -0.861193878998356, -0.8180169905576892, -0.7862794897548114, -0.874780698670914, -0.8127462118873967, -0.8570200212455473, -0.7821031911101183, 0.7081153984678558, 0.6291679201597297, 0.787473017027775, -0.8700683557599606, -0.691008234036533, -0.7582286358927862, -0.688982191005685, -0.8261195691572243},
  {-0.30450475732917004, -0.6493090475793073, -0.5325072978338199, -0.8100747658755633, -0.7947427747444066, -0.7502698218517375, -0.8132984216659617, -0.8049320113454467, -0.7335094359513457, -0.8127462118873967, -0.8570200212455473, -0.7821031911101183, 0.7081153984678558, 0.6291679201597297, 0.7184276623609048, -0.8009939209689819, -0.6904151059870899, -0.7515597828572749, -0.6702320615187759, -0.8087618387109851},
  {-0.044825639442526814, -0.3003995794969837, -0.16694484841445711, -0.7922664726718939, -0.7841012733710839, -0.6365953589962614, -0.8086150849816838, -0.7795567846304322, -0.604165379162264, -0.7268281400576044, -0.7515539837839446, -0.614697010705315, 0.6516725447506149, 0.7473513853726098, 0.7135877258878983, -0.7787929608181601, -0.6896442359866094, -0.7580105468880758, -0.6532707071435401, -0.8129732311384926},
  {0.3526887326933794, 0.7227535229166852, 1.368283873518744, -0.7651278163466156, -0.6630281288406592, -0.659133503974486, -0.7732527966373163, -0.6725980402450706, -0.6730167884369918, -0.6791423825735479, -0.38910986750449794, -0.4192870824123738, 0.6516725447506149, 0.7396463280227977, 0.7135877258878983, -0.7050469233236555, -0.6870027224788908, -0.7236537312715886, -0.6201334736247031, -0.7579175263432891},
  {0.276264119116087, 0.7068838164088874, 0.7038474593403742, -0.7955688957478801, -0.7011440877544929, -0.6095746317051505, -0.8057457353317139, -0.704049945192572, -0.6037166883674269, -0.6791423825735479, -0.38910986750449794, -0.4192870824123738, 0.818013172113463, 0.7396463280227977, 0.770906949950112, -0.7692102349566978, -0.6897098009629135, -0.7331753943077377, -0.6371738035136211, -0.8086813451603572},
  {0.016382600184048964, 0.052193600714884776, -0.28812987515529875, -0.8551792357769004, -0.9104029600035406, -0.8693703334727884, -0.8492583133362919, -0.9107380079911509, -0.8732460215981531, -0.8482972509099966, -0.8458243688559252, -0.8673175094502947, 0.8580468695289711, 0.858918337483307, 0.770906949950112, -0.9094751935656221, -0.6928375431021883, -0.7742989061574942, -0.6888844289607956, -0.8308854009461623},
  {-0.03179112598748782, -0.18025443257782572, -0.42455822929911213, -0.8596204945955451, -0.9005206748090643, -0.8799722746921574, -0.8520142077318833, -0.8966063986835421, -0.8808179564759988, -0.8554883829161075, -0.8917388105122268, -0.9122453313350712, 0.8775784595480314, 0.8383868172454875, 0.7767098568823947, -0.8992488783628084, -0.6929267993008345, -0.7727834448485362, -0.6875231037486197, -0.8303443637205437},
  {0.0275986356109836, -0.21030656801320965, -0.31431908589514146, -0.863710764684031, -0.9046408834521793, -0.862240556128329, -0.8558183428377486, -0.9004741222334357, -0.8597919870614458, -0.8554883829161075, -0.9297978207984947, -0.8893227975179397, 0.8900900884752228, 0.8383868172454875, 0.7767098568823947, -0.9015893535429074, -0.6930340454195361, -0.7727684833886853, -0.6879535270559345, -0.831646604583579},
  {0.08086640609590384, 0.08167542780036523, 0.15308786128976376, -0.8650557720402967, -0.9171427320665381, -0.8913865013784136, -0.8584235924266529, -0.9158088797094309, -0.8924065916344934, -0.8663077525289935, -0.8748906235798293, -0.862153122871154, 0.8750560220350503, 0.8550240726930273, 0.834527003529612, -0.9239557311827755, -0.6930554253031136, -0.774630433109119, -0.691996595809163, -0.8376513534894378},
  {0.042314842702687844, 0.045334462271706115, 0.0485164280468494, -0.868254162136895, -0.9165265690160729, -0.8932608942223292, -0.8616652856666006, -0.9158410874150095, -0.8942889678495611, -0.8670298519031656, -0.8748906235798293, -0.862153122871154, 0.8750560220350503, 0.8689838137263832, 0.8298256848358675, -0.9291003761855121, -0.6931158668118216, -0.7746807796089359, -0.6924981556459159, -0.8399136770735207},
  {0.19765508300456666, 0.2241674113417146, 0.03676869183147384, -0.8644942212730214, -0.8973884678695884, -0.9070391255236144, -0.8555951583589626, -0.8876312739090414, -0.9087073736565066, -0.8587592897788845, -0.8731735468036964, -0.8863364484564367, 0.90195375230743, 0.8689838137263832, 0.8298256848358675, -0.9153894411045306, -0.6929596973559249, -0.7724000673349926, -0.6933057512296426, -0.8309908149340625},
  {0.162502063746997, 0.24384334102466826, 0.11309110067505333, -0.8612480268189283, -0.9048226743331278, -0.9062403594372741, -0.8522330058715891, -0.8967012724999742, -0.9072762480438245, -0.8587592897788845, -0.8731735468036964, -0.8766296994813302, 0.8960685965423659, 0.868900719856514, 0.8335341805495594, -0.9154969709510107, -0.6929308441436737, -0.7727135455414006, -0.6930675181912208, -0.827236763663149},
  {0.3131240253893902, 0.0737739383078377, -0.541528098571824, -0.8519543694207664, -0.6432512626473477, -0.8032725293999958, -0.8423242894720855, -0.6621717988392354, -0.8051882975582539, -0.8251250950320754, -0.3832758812454498, -0.7988028967163601, 0.8992317928146961, 0.7694508330911992, 0.7067654007039604, -0.8134783417513778, -0.6924749325722533, -0.7304083950080457, -0.6775506993954008, -0.8162278779229455},
  {0.039103754387565366, -0.19558965726464, -0.16403815380246398, -0.8712918671903507, -0.8789114751166863, -0.8614578413206592, -0.8635131135427362, -0.8662105771989554, -0.8662472904181681, -0.8633349304329244, -0.9226639089165413, -0.8855823487805983, 0.8926874773798257, 0.8238798208583129, 0.7730341351397684, -0.9120083237377686, -0.6931608993954287, -0.770940335484952, -0.6895136651271413, -0.8398811405630866},
  {0.054124132389261004, 0.07742013305313034, 0.06883980510005087, -0.872173584577568, -0.9499517183592739, -0.9190036817642883, -0.8643592053358342, -0.9498113468186923, -0.9254842798825568, -0.8682122554232784, -0.9226639089165413, -0.8855823487805983, 0.8926874773798257, 0.8805680014313328, 0.848928947540393, -0.9456548217938556, -0.6931723790446287, -0.7761287164456551, -0.6938374055576331, -0.8408939437340441},
  {0.05226266904771968, 0.24572787770874321, 0.1742851361398642, -0.8725943966420081, -0.897661800815027, -0.913875035484914, -0.8647992777744038, -0.8983228121408265, -0.9182366436421637, -0.8665596122105061, -0.8337398829762226, -0.8676698015142092, 0.9063437859639472, 0.8805680014313328, 0.848928947540393, -0.9261746868261366, -0.6931779262576651, -0.7721932983766244, -0.6931191924149481, -0.8401837650956213},
  {0.030719625570456502, 0.31171858205941755, 0.07746630117439054, -0.8732509543911022, -0.9043263854270992, -0.8990419103276694, -0.8656191930278304, -0.9078086914437904, -0.9005080202888512, -0.8665596122105061, -0.8337398829762226, -0.8676698015142092, 0.9000031182735059, 0.8759299082584786, 0.8293902880030405, -0.921239442050756, -0.6931856692425282, -0.7718286820587674, -0.6927874321851946, -0.8417118238735076},
  {0.05418434029516946, -0.12176411987924644, -0.11969397678855072, -0.8731947480556232, -0.9108119447193971, -0.9109532967077472, -0.8657312569165867, -0.9058875481110463, -0.9200340873746996, -0.8693360373812364, -0.9152524868135675, -0.8901514597818805, 0.9000031182735059, 0.8463699698410444, 0.8194242136683044, -0.930121899128823, -0.6931852454970879, -0.7739243155330688, -0.6931329782148262, -0.8426521801577083},
  {0.008040602667527744, -0.15595020056035183, 0.057282246279555006, -0.8687689114352938, -0.9171538142073599, -0.9049212166290355, -0.8616878540886418, -0.9170503478444545, -0.9075873371083609, -0.8693360373812364, -0.9116255075944487, -0.8901514597818805, 0.8880066048187173, 0.8463699698410444, 0.8194242136683044, -0.9289033547143841, -0.6931190641637798, -0.774057781254282, -0.6931639737387361, -0.8388260587669075},
  {0.005354020577637413, 0.050898601571714525, 0.20505816949642594, -0.8709515090795507, -0.946476263496177, -0.9194929830195941, -0.8644596194853134, -0.9456647848005036, -0.9255338821910927, -0.8712928258605632, -0.9116255075944487, -0.862202366168728, 0.8880066048187173, 0.8856921137050441, 0.8399395106795065, -0.9414055805571077, -0.693150575415611, -0.776073620276044, -0.693149782474155, -0.8443447514982789},
  {0.060102791679527506, 0.0220914012585816, 0.06887105988082495, -0.8762083614958147, -0.9544754203881436, -0.9141309243962196, -0.868640531685173, -0.9537525821413181, -0.9203030362111958, -0.8733114865337805, -0.9400062426240102, -0.862202366168728, 0.9073822684381055, 0.883996765922247, 0.8263848208326202, -0.9492684647698995, -0.693217989462927, -0.7763643000674403, -0.693611471615181, -0.8456871987687494},
  {0.05318258322239346, 0.03709318437288103, 0.027712928118366443, -0.8753826721527665, -0.954019043105972, -0.9183764876045705, -0.8676682265224148, -0.9536840301494447, -0.9240991583583659, -0.8692741284570438, -0.9390400591834078, -0.8861476087479105, 0.9096490460666364, 0.883996765922247, 0.8263848208326202, -0.9497329224864522, -0.693210246478064, -0.7763394434621846, -0.6938680857201072, -0.8445188985280728},
  {0.025142494655054897, 0.017406849803347738, 0.005081641546985595, -0.8713000017313698, -0.9445348196555189, -0.9047753936286136, -0.8650155525900153, -0.943097614575867, -0.911660473900718, -0.8672261570027491, -0.9214418293043082, -0.8861476087479105, 0.8894275731834795, 0.8748777739692405, 0.8224226290621633, -0.9425172734130791, -0.6931597437260458, -0.7760360187235077, -0.6931926716293327, -0.8447102691862193},
  {0.017914556901054934, 0.056542088546581666, 0.07210407559378183, -0.8700081474718991, -0.9381856880824576, -0.9008792323613222, -0.8634483796676025, -0.9354534603718918, -0.9105698268411255, -0.8601598161980294, -0.9214418293043082, -0.8752200888187145, 0.8894275731834795, 0.8748777739692405, 0.8224226290621633, -0.9383696058062013, -0.6931402129134808, -0.775742884936051, -0.692907224478909, -0.8413926485106029},
  {0.0824786400207883, -0.03626356949798257, -0.0031879849683455, -0.8688895923657536, -0.9237838591489355, -0.8937315406433467, -0.862237537839278, -0.919577160682101, -0.8966484342337787, -0.8601598161980294, -0.9248856205966295, -0.8752200888187145, 0.8806274546541176, 0.8643905708699805, 0.8190779378592568, -0.9307090845826357, -0.6931202198331625, -0.7750475332782013, -0.6925449192415818, -0.8407678075682823},
  {0.15535539954919972, 0.4913578142692677, -1.0719799999338246, -0.776178646036948, -0.6983670863088965, -0.4354722878805904, -0.7835332199001572, -0.7288285576042524, -0.40047205021228693, -0.7166531852299451, -0.7457128046527223, -0.7445039766125037, 0.7314114186929953, 0.5926135443317926, 0.3575393969822624, -0.6968357594129502, -0.6883278900375603, -0.738550516452511, -0.5670864815703605, -0.7848676067454269},
  {-0.05715673098030691, 0.21461764666530228, 0.24705143959600995, -0.8473147169469134, -0.7974169928157028, -0.809515593027066, -0.8458722482261912, -0.7709714862834498, -0.8009194562340691, -0.8508010270482247, -0.759758818663872, -0.7445039766125037, 0.8307958362747988, 0.8519758228272165, 0.8163033324214976, -0.8591167599032913, -0.6925722399342651, -0.761438146094958, -0.6837526874818753, -0.8357278509693488},
  {0.08164825485986534, -0.25344464945105505, -0.26741307634184475, -0.871853774540246, -0.9255468546574025, -0.9141704793329432, -0.864039002582986, -0.9221488996675288, -0.9216116774475911, -0.8666052128805658, -0.945055390860125, -0.8895342680439408, 0.8905248065466304, 0.8519758228272165, 0.7984921902422184, -0.9202206958489964, -0.6931631336895684, -0.7735042072397845, -0.6919801069112693, -0.839963195005034},
  {0.03918189656331897, 0.0005326772076995855, -0.19870182464915181, -0.868478229740744, -0.9473862326032219, -0.9179043841478404, -0.8621292943103656, -0.9476664782671989, -0.928863419039713, -0.8531273590969985, -0.923105118987041, -0.8842604027583075, 0.8945232226200597, 0.8803198257996776, 0.7984921902422184, -0.9404289941946242, -0.6931193338199692, -0.7761344160494076, -0.6928799682405874, -0.8414113792064362},
  {0.0678458415174116, 0.13847500769261986, -0.10814454067944261, -0.8455251847819767, -0.9109676517823613, -0.8560968097880326, -0.842430504908735, -0.9165640835202331, -0.8719117339880164, -0.8350990432814822, -0.8138799377092296, -0.8093196928318598, 0.8601538975492303, 0.8700418271615803, 0.7741276642050935, -0.9114795134460307, -0.6925504363052474, -0.7739995186381414, -0.6894121187450303, -0.826463880252756},
  {0.0758590440867719, 0.17887206560627583, -0.07171753513891074, -0.8457523279109234, -0.8919295286567553, -0.8590121710482277, -0.843383000798228, -0.8942004522068298, -0.8760043591265216, -0.8350990432814822, -0.8138799377092296, -0.8093196928318598, 0.8601538975492303, 0.8256076785719835, 0.7741276642050935, -0.9051131445537967, -0.6925563302190985, -0.772396188437994, -0.6898274948067261, -0.8273998768060298},
  {0.018600186883942788, -0.41926445486796526, -0.01222344190298374, -0.8663625804833942, -0.8309566642461033, -0.9285198447477562, -0.8587045539524618, -0.8095427965040393, -0.9352296845621746, -0.8648823413301747, -0.8819279808968841, -0.9065735039749194, 0.8867231619431697, 0.7981481087055076, 0.8240197221337411, -0.9005275148558541, -0.6930816975204103, -0.7625001722609095, -0.6942786412570091, -0.8350984888245858},
  {-0.009918006543789742, -0.5942563417914322, 0.03344985790689997, -0.8678329489170076, -0.871593243157366, -0.9185206385967976, -0.8591929940332536, -0.8630947029192828, -0.925576577849073, -0.867855989858041, -0.9514913461111197, -0.8852003133565738, 0.8944084988569567, 0.7981481087055076, 0.8240197221337411, -0.8974014125852882, -0.6930979154140792, -0.7625492521821144, -0.6938706987148555, -0.8350970624928629},
  {0.02287708323557403, -0.008594363833634556, -0.058192867517151296, -0.8702610759815552, -0.9103660924865876, -0.9141371585982029, -0.8624276596976859, -0.9031756593013445, -0.9205013971470836, -0.867855989858041, -0.9312748753277944, -0.8852003133565738, 0.8944084988569567, 0.8481187538217676, 0.8289694648417737, -0.9316490857854455, -0.6931447970686982, -0.7743201213492404, -0.6935610137855608, -0.8384126109506931},
  {0.04536381091182962, 0.1302679879931316, 0.07901032266076848, -0.875430097641228, -0.9525287239708663, -0.8919528822115016, -0.8677816110293889, -0.95014562781659, -0.8965552427495336, -0.869985153645132, -0.9312748753277944, -0.8313025202385521, 0.9015331993614113, 0.8803798105512715, 0.8289694648417737, -0.9395655335547237, -0.693211055446632, -0.7759844056450789, -0.6923523685596198, -0.844606308441961},
  {0.032826048264405744, -0.0037132565723345906, 0.1637627462534483, -0.8722755449204773, -0.9476804365822729, -0.883447734811794, -0.8651549721418519, -0.9487455907541021, -0.8919181755243974, -0.8660944963949901, -0.9515118971744739, -0.8313025202385521, 0.8869964250902392, 0.8549329459306592, 0.8203201922502484, -0.9365555881062968, -0.6931736117586366, -0.7761415405540992, -0.6914047524986969, -0.8424368578913843},
  {-1.433589737257603, -0.1757925349131312, 0.2544100157388777, -0.6427917630831985, -0.8620324196312149, -0.8505042767779142, -0.6454035583251364, -0.8713850280751756, -0.8734329599965832, -0.8358586442941003, -0.747005324806246, -0.7705562674081916, 0.3967463587853763, 0.8017634924236028, 0.7516792737591124, -0.7959987748834982, -0.6615705997785096, -0.7695565191904524, -0.6880081746874785, -0.6359183684640805},
  {0.3760029988210587, -0.14494763337850225, 0.21631637108615112, -0.8499451377890759, -0.9230536714143598, -0.9128689642682442, -0.8444094041429743, -0.9259596166075488, -0.9247319379545506, -0.8376354359279768, -0.9179731641387545, -0.8192544175156373, 0.8623629419773889, 0.8253234713428156, 0.8454365384084713, -0.9160477620136535, -0.6922712265824206, -0.7744706858817128, -0.6927469307665977, -0.8246962246573365},
  {0.15929923088942266, -0.09084609497779272, 0.16513933393683192, -0.8544301448379131, -0.9533603222472166, -0.9404997118063286, -0.8473340310983407, -0.9509485978156651, -0.9470659448773032, -0.8381101383523415, -0.9548638110404535, -0.886974875728368, 0.8833397873626063, 0.877611926096477, 0.8657984760694101, -0.9385790696230586, -0.6927697438317444, -0.7760733827925539, -0.6942202092882435, -0.8237985775890663},
  {-0.034574780871302675, -0.08762866683750427, 0.1501748097732063, -0.8686808801009788, -0.9570711880442507, -0.9358883132049453, -0.8621470519088995, -0.954605890829112, -0.941829496299753, -0.8645163055045785, -0.9611044603238452, -0.886974875728368, 0.8796000292292921, 0.877611926096477, 0.8654855115096424, -0.9458260471240088, -0.693099032561149, -0.7761960825955676, -0.6941658770181346, -0.8401723544418379},
  {0.02607037961632625, -0.003657262305178219, 0.09333172232124465, -0.8698969828401107, -0.9643869926764972, -0.9304508470119831, -0.8637871182404343, -0.9638173769445507, -0.9396322154579534, -0.8645163055045785, -0.951586341629832, -0.8717763930563858, 0.8796000292292921, 0.8900077560953127, 0.8327120777220672, -0.9536118820578818, -0.6931399432572914, -0.7766129452811598, -0.6942348510691602, -0.8423912421881699},
  {0.05988487606736219, 0.001345733570929418, 0.07103152452925089, -0.8736942088741892, -0.9699716157018455, -0.9281771308394756, -0.8665084171552162, -0.9705085946634762, -0.9380442895583564, -0.8656524655743449, -0.951586341629832, -0.8717763930563858, 0.9010857189246043, 0.8913514028891427, 0.8327120777220672, -0.9568058555226976, -0.6931906771431859, -0.7767267790338905, -0.6942134064915713, -0.8442189382755488},
  {0.08218300923929403, -0.02455633223020404, -0.009614285740732904, -0.8706966862247257, -0.9692135336020415, -0.9248901538150607, -0.8631103485688156, -0.9685134867979215, -0.9332580531706957, -0.8652011052569659, -0.960168465686653, -0.9064637530179906, 0.9010857189246043, 0.8913514028891427, 0.825946099590843, -0.9534718791728038, -0.6931471084074634, -0.7766821321378261, -0.6941384405732782, -0.8417088366504653},
  {0.25480234919502653, 0.07098885452441546, -0.10130680691720396, -0.8633102778289317, -0.9553896671617534, -0.925030220330126, -0.8545209061862943, -0.9525882478596543, -0.931810385405459, -0.8501512680040424, -0.9411754563974072, -0.9064637530179906, 0.9035410439988485, 0.8944037856199344, 0.825946099590843, -0.9386320184810335, -0.6928569968701278, -0.7763144285346025, -0.6938699328370846, -0.8273200829653036},
  {0.23352219934001642, 0.12357825365010687, -0.07089255019101982, -0.8554931399145783, -0.9550227030588511, -0.9231088440559351, -0.8467067610274165, -0.9511984184789343, -0.9284806795129437, -0.8501512680040424, -0.9411754563974072, -0.9041821922721432, 0.8885543688422597, 0.8990004919336104, 0.8387629049703118, -0.932781084888791, -0.6927110358271105, -0.7760949937901174, -0.6939213818026438, -0.8198365779177168},
  {-0.036611459182521344, -0.04988720749604334, 0.11231856018981715, -0.858699441688058, -0.9478628243469283, -0.9201986182494817, -0.8512910513453693, -0.9468367131034827, -0.9276095480252067, -0.8517410656699183, -0.9411956885649512, -0.8950724544714236, 0.8853958759416604, 0.8800835248786729, 0.8387629049703118, -0.9353889539213137, -0.6929027228553646, -0.7760591337831723, -0.6937497801303012, -0.8283286340530115},
  {0.26368664487114934, 0.03962598763972801, -0.01839899810644896, -0.8430362380943034, -0.9239200083224423, -0.9014375158975811, -0.8311206125802859, -0.9147628804482628, -0.9042431658882836, -0.8408499250467252, -0.9134264185359202, -0.8950724544714236, 0.8853958759416604, 0.8800835248786729, 0.8216257447308495, -0.9149763637049239, -0.692281935785366, -0.7750978797780181, -0.6929857945278893, -0.7975718626658083},
  {0.9323372866152186, -0.530004329275639, -0.08242238584438824, -0.5568243735455493, -0.7467774388244616, -0.7476559475549046, -0.5839535890492106, -0.7196407796529203, -0.7891579616186616, -0.7183128990258719, -0.8685974627862802, -0.49495885282153085, 0.27295388987264274, 0.6584747933587706, 0.7902775421460871, -0.6797838107439452, -0.6477553427562531, -0.7468865827469002, -0.6759894350333546, -0.6625729021684595},
  {0.7578680124914161, 0.115745746154098, -0.0035220756193322456, -0.6973151846008036, -0.9213053990373256, -0.8652049550002957, -0.6665972168017623, -0.9184668694897974, -0.8637671749913775, -0.7394903607526973, -0.8685974627862802, -0.8652586495609248, 0.8015009817152104, 0.8786534662811153, 0.7902775421460871, -0.8246149194669534, -0.6771730224562709, -0.7747263764389595, -0.6904975928047372, -0.5870522436364922},
  {-0.17230541854646825, -0.057003846052691945, 0.1671540842061909, -0.7923570669437905, -0.9549550960310013, -0.9053313602392308, -0.7778509298640863, -0.9537214240159214, -0.9086256530079744, -0.8124904587938611, -0.946307765574372, -0.8652586495609248, 0.8015009817152104, 0.8810603944577595, 0.839022410347767, -0.8947031828716011, -0.6895021656971798, -0.7762613905552362, -0.6927297660941998, -0.7235671794599616},
  {0.29063188896508657, 0.01033682004150494, 0.010374824080799573, -0.8177883165388034, -0.9539588971244566, -0.9219067657071668, -0.8038121616013028, -0.9535855342523853, -0.9257733932407802, -0.8124904587938611, -0.9287919879787652, -0.89946079118334, 0.8652516923834424, 0.8825116412645166, 0.839022410347767, -0.9176204787531144, -0.6910933298254022, -0.7763504468638741, -0.6940262620056402, -0.7630451350633847},
  {-0.10215879576328522, -0.0010748851204069102, 0.0875151546449762, -0.8262651768730033, -0.9492086976250035, -0.9280133695797063, -0.8160563441538157, -0.949763251350362, -0.9353350955050953, -0.8389863580741331, -0.9287919879787652, -0.8694230943207072, 0.8379051614295592, 0.8679774319987683, 0.8533578661795417, -0.9233037056342687, -0.6916822204204421, -0.7761955284674248, -0.6941617773194778, -0.792806703674853},
  {0.2910001108388107, -0.011114718484413519, 0.007741829526432689, -0.8158036222486523, -0.9509142729208826, -0.9286965760139515, -0.8066912743930962, -0.9505190108212603, -0.9369894556553163, -0.8239260526851104, -0.9421505334878404, -0.8694230943207072, 0.8379051614295592, 0.8679774319987683, 0.8495215318307597, -0.9188049603914261, -0.6909821544307997, -0.7762419169090803, -0.6942998155247961, -0.7829302984107369},
  {0.13975030741636427, 0.007721140358236722, 0.015806975611614503, -0.8180600770680789, -0.9535434660645672, -0.9199462405553854, -0.8067138663976055, -0.9531538275176132, -0.9294276875602816, -0.8239260526851104, -0.9421505334878404, -0.8509403525478574, 0.8692010668674176, 0.8745445544539575, 0.8495215318307597, -0.9208706229439644, -0.6913060115141059, -0.7763373852719407, -0.6939416099861256, -0.7775068200498509},
  {0.04255296995229807, -0.005465644335405579, 0.06382614978638072, -0.8189442682472226, -0.9529274820792141, -0.9175820448537056, -0.8125627194063796, -0.9541417911687295, -0.9284911360852884, -0.8036248106800765, -0.9336323657574932, -0.8509403525478574, 0.8692010668674176, 0.8745445544539575, 0.8473367571325194, -0.9226175749166338, -0.6913891811873376, -0.7763108662822575, -0.6937842446299973, -0.798909600350401},
  {0.5701199772375427, 0.050381199840100095, -0.05143618428810629, -0.823227159809755, -0.9547363182563585, -0.9279266401260566, -0.8146431883310382, -0.9518243387073443, -0.9346206435586336, -0.8036248106800765, -0.9336323657574932, -0.891019802546838, 0.8738909886057163, 0.8927485731949484, 0.8436464952982216, -0.9172727501642111, -0.6905536322237464, -0.7763415808135921, -0.6941780860108372, -0.7819315432616544},
  {0.023802121487346083, -0.013789823155801713, 0.0745287049429878, -0.8124965858850198, -0.9524535365199408, -0.9113237898378936, -0.8028512467706721, -0.950554182047352, -0.9164964816408092, -0.8047838904583546, -0.9413084359504579, -0.8796534149151456, 0.8346393436371767, 0.8793579742370016, 0.8436464952982216, -0.9138180809410946, -0.6910234118277574, -0.7762871179332865, -0.6934601882295873, -0.7808684955373623},
  {0.025625011915173492, -0.06211740916442737, 0.16778009804122157, -0.8170964793967416, -0.9589101071602149, -0.9148597527683525, -0.8081799412789624, -0.9588353285216548, -0.919893732643828, -0.825014628648504, -0.9505885520711054, -0.8796534149151456, 0.8346393436371767, 0.8793579742370016, 0.8349105865946574, -0.9159159409777258, -0.6912867888800427, -0.7763525050541188, -0.6932096560951959, -0.7786502536770938},
  {0.7002460574919612, 0.04855512509176028, -0.03186168590870746, -0.8305922846804173, -0.9583751202938661, -0.9174514132420254, -0.8184054173909607, -0.9571783706946682, -0.9214581855911871, -0.8127573778992356, -0.9487858340533734, -0.8985355821086067, 0.8932994933119293, 0.8800882398373133, 0.8327453218115705, -0.9125683352780811, -0.6903171822680745, -0.7764459152267353, -0.6937834337005927, -0.7837680126347251},
  {0.010819418145194104, 0.030100174296671677, -0.05313471387153146, -0.7978880868220147, -0.955401246705664, -0.9197988172042627, -0.782726746653589, -0.9536336091407117, -0.9271722073204434, -0.8127573778992356, -0.9487858340533734, -0.893021728063823, 0.8378087560616195, 0.8825923776550658, 0.8327453218115705, -0.9063402523543932, -0.6900771497373167, -0.7763863860319828, -0.6938370901961979, -0.7352245348076315},
  {-1.0038308289594828, -0.35897820875522674, 0.2164842286827833, 0.3118646213436345, 0.6568747192584052, 0.35744208029356156, 0.31277396089483755, 0.585313888066531, 0.3567895864109801, 0.5305843868743406, 1.2184384220015612, 0.6143158488897605, -0.4247409171033307, -0.563787369388416, -0.3251312717951887, 0.3989343914477274, -0.13371606682132378, 0.258729575767353, -0.0781634928846733, 0.2914199206608341},
  {-0.3579013414189298, 0.3500424969535082, 0.9376336433244349, 0.4590154819977216, 0.7423099073757642, 0.34272100357120294, 0.45576868565387435, 0.675646335692201, 0.36902413829119196, 0.5305843868743406, 1.2184384220015612, 0.7986129227693403, -0.4247409171033307, -0.619283567670544, -0.011851833414202715, 0.5165499567435718, 0.0071358389004028125, 0.36778935622712267, -0.07433491495896462, 0.40541076415417604},
  {0.7196822512688504, -0.29671564682109114, 0.5525888529837865, 0.31272057563655603, 1.0433334896958535, 0.566351765230121, 0.3077702563804345, 1.0177380129508211, 0.6382232804972783, 0.23757448072156553, 1.1913756302082077, 0.8246377503023176, -0.4049096040330761, -1.4399953755485344, -0.1850697252321224, 0.583593427653151, -0.13537872836201337, 0.7979103492433097, 0.13400388673614497, 0.29987965558104895},
  {0.48849527941802134, -0.1086224246611261, -0.4054873390257461, 0.201942055966506, 1.0802529375207734, 0.6108821683967847, 0.18110007072948225, 1.0840433693280351, 0.710263123266793, 0.14017218408054133, 1.1913756302082077, 0.8246377503023176, -0.3662844426781053, -1.4399953755485344, -0.1850697252321224, 0.5564861771464816, -0.2341754400292329, 0.8535101421748879, 0.1795619457388931, 0.21065461347173334},
  {-0.126520793322154, 0.04310755678906599, -0.20498385900406768, 0.2328679762989161, 0.6918040354387085, 0.5143239340027829, 0.22001095455459624, 0.7565946927125373, 0.5760340118590241, 0.30427904171276876, 0.21983819469125096, 0.7876928897271284, -0.3662844426781053, -0.4910121282946546, -0.14619556448215915, 0.4555306584239254, -0.20846742052492193, 0.29962130373115936, 0.07455411146441968, 0.17463887628632846},
  {-1.2393003905809417, 0.15100512788867418, 0.046465266840792024, 0.3445140614834517, 0.6259895687369786, 0.3460678862606562, 0.2968383674343246, 0.6902391634596935, 0.4069960095282575, 0.30427904171276876, 0.21983819469125096, 0.7876928897271284, -0.5100924538064452, -0.41868422617808787, -0.0590079027767364, 0.4535313833106095, -0.10100734889827528, 0.21759601044986615, -0.08941468785733242, 0.13299437661961308},
  {0.1382734345281677, 0.7694641856300035, -0.08498916264287781, 0.41634642681822875, 0.6036160793542469, 0.29540352994455177, 0.3648124029477435, 0.6166791306190224, 0.38213641437103507, 0.28757814065006354, 0.6135625884423658, 0.39792514495036313, -0.5100924538064452, -0.4591512900606228, -0.07707599826195351, 0.4581688596485068, -0.037046826920460074, 0.2034322576404935, -0.13449727191917643, 0.19209854908287838},
  {1.1862479747081136, 0.10234361020453889, -0.3907839953493691, 0.34102086670575993, 0.7185319506310791, 0.4851219287065084, 0.3258589291851097, 0.7313038645921407, 0.5442281132783072, 0.28370111034200135, 0.6135625884423658, 0.39792514495036313, -0.3425950445436161, -0.5219376875415589, -0.3703300030435279, 0.4910515206165282, -0.10563002642851752, 0.33421014071708594, 0.04735540407882491, 0.2615311663187514},
  {0.6294214908415389, -0.48863466196879474, -0.4110589892956097, 0.266696724308763, 0.7836046699504463, 0.5369803138462146, 0.2568054297735563, 0.7977249205763339, 0.6022602786067854, 0.28370111034200135, 0.4308465565789431, 0.3437600019043941, -0.4259625285189273, -0.9463750279247978, -0.3703300030435279, 0.4800053459751172, -0.17759610135320658, 0.4260864074735836, 0.10081227589556516, 0.2838900194643734},
  {0.6490008741062387, 0.16802642940336246, -0.2219112363745128, 0.21560726028110058, 0.7295751149467893, 0.42380518429521324, 0.20939099091500576, 0.6497299577834585, 0.44773348718116435, 0.07310592143938965, 0.5037078005356831, 0.3501260678758146, -0.500489213925167, -0.9463750279247978, -0.12236291029719736, 0.39200701477966243, -0.2219766948169891, 0.3489698187632866, -0.015361110196113423, 0.12479226950286251},
  {-1.1574431165953338, 0.17420407963226633, 0.359719944711473, 0.33262033733865576, 0.7940987808404522, 0.43301675515724297, 0.32875667212675946, 0.7301219344074291, 0.44964554267431905, 0.2455491618972648, 1.086336341848778, 0.7296895260060643, -0.500489213925167, -0.7375617104171143, -0.12236291029719736, 0.48054155384549124, -0.11303089463212278, 0.43488825805244363, -0.005107718804196531, 0.35079033274173976},
  {-1.1354564134426166, -0.06080398214865242, 1.052356576388579, 0.37464371053896456, 0.8254966484971293, 0.6382768761494196, 0.37913497916771594, 0.8523922014447615, 0.6619043740679105, 0.2455491618972648, 1.086336341848778, 1.3077721825625181, -0.4854613911422049, -0.847350022963301, -0.3733119978719657, 0.5982042601582038, -0.07301256786437907, 0.4773359778407828, 0.22891722673037154, 0.5807764733017685},
  {1.0704029819984424, -0.3136821058106609, 0.014889109224813044, 0.3853740615995624, 0.8047606160520513, 0.6389833951550672, 0.39825340402761766, 0.8518903168978346, 0.6960192190574521, 0.5796135184274713, 0.6889852389832959, 1.3077721825625181, -0.35576737342609305, -0.9471616576541424, -0.3733119978719657, 0.5903523769291146, -0.0638165213642169, 0.4513141202624002, 0.2067644374617094, 0.40353091276719255},
  {0.48702153791027386, -0.17868497575756523, -0.2593242684452294, 0.43716933635070815, 0.6831851739862835, 0.4160714298191131, 0.43609248825675334, 0.7060066155106318, 0.47252865246537124, 0.5796135184274713, 0.4395266170825085, 0.619628135518145, -0.42597919660822026, -0.9471616576541424, -0.0708781918422386, 0.5204815896184714, -0.015228058633905672, 0.28949461192440945, -0.022390156172025, 0.4286776523689185},
  {-0.9033088194712748, 0.4193752322496639, 0.22420894487048254, 0.3573963886558131, 0.6037655390344139, 0.30838593311675333, 0.3242678436399698, 0.5862882277552875, 0.34622837589545336, 0.24881747927374356, -0.004031873032488552, 0.619628135518145, -0.49630249795190484, -0.8628754329540288, -0.0708781918422386, 0.42426651983270863, -0.09157361972843338, 0.19395658724018264, -0.1223406742662679, 0.1183983204200788},
  {0.33066132159482337, -0.07950839536809624, -0.09264905606208995, 0.4059639666762787, 0.6333948064446178, 0.48528100834333215, 0.39250093256626517, 0.6955956444674412, 0.5370134164482563, 0.26073229341651605, 0.5292027056429969, 0.629636129600455, -0.49261995042210394, -0.7756465268941604, -0.26652929599658864, 0.514388040882761, -0.04716278624914041, 0.22646744369120897, 0.04425805921790851, 0.40757133377138344},
  {0.8348848839800221, -0.6310441097153042, -0.3012176821689502, 0.5397677838584756, 0.8249502014636112, 0.5120408306985531, 0.5612458259723732, 0.9719924105876371, 0.62767337177357, 0.29481215528387833, 0.31893567021651487, 0.629636129600455, -0.5553138602210139, -0.7756465268941604, -0.26652929599658864, 0.6905488065796924, 0.09526179289068694, 0.4863212448348564, 0.07331127204858395, 0.6549805469177133},
  {-0.6358265861763132, 0.36873516730519645, 0.4780108670429725, 0.5384121681692643, 0.848429708396478, 0.48366608728542526, 0.5328267350723312, 0.9529058011558172, 0.5991695766322737, 0.3520254041952935, 0.39371496617584695, 0.4736882894120326, -0.5553138602210139, -0.5411624948282329, -0.16864895833151014, 0.6946349407459371, 0.09314495328265104, 0.5120256661486704, 0.04696106713001516, 0.4909781534875125},
  {-0.5267171928127519, 0.48746669790386676, 1.0629398689523337, 0.4276991705556412, 0.6839600285182467, 0.4585931539979837, 0.4059237197131104, 0.7145105816835273, 0.5510336997340131, 0.3520254041952935, 0.40390698258354674, 0.4352097740694202, -0.40424744630760506, -0.450364237016849, -0.3072500819687341, 0.555756445227544, -0.024371136954033687, 0.29493258803279115, 0.040809717079695725, 0.3270232326829578},
  {0.8115549609500967, -0.46287945553005433, 0.004842727883780069, 0.42528194154741744, 0.6972459634658995, 0.42545966028984405, 0.42800738053857196, 0.6933099881115633, 0.4829271220085402, 0.25383505892267333, 0.40390698258354674, 0.39178388977629736, -0.515374147724835, -0.8336522764650726, -0.3072500819687341, 0.5069133917711183, -0.025811293616267963, 0.3119581752154107, -0.014955780648708105, 0.2732972458203954},
  {-0.11183262631901734, -0.6276759749041136, -0.5618998587319863, 0.3825692941426284, 0.8143312284709928, 0.4524666771137571, 0.35476669599062516, 0.8034769286725874, 0.48607522645987267, 0.3404162412614618, 0.3986196546097272, 0.47389492749279855, -0.515374147724835, -0.8336522764650726, -0.27900482897037937, 0.5056698778792195, -0.07050669141986021, 0.4716205418552655, 0.018444779668460174, 0.22813893758636244},
  {-0.48489789158537866, 0.46022744734428533, -0.17199699831687737, 0.3835889644309622, 0.8219533876449469, 0.4954234817107578, 0.3664513844857421, 0.7873236632948258, 0.5492245678236136, 0.5252196507750948, 0.40116125422078786, 0.6070771181777144, -0.26189745291082195, -0.9690796755105239, -0.2381812549598813, 0.5461425393140077, -0.06852999598561553, 0.4770583596413199, 0.05499629629051622, 0.27796288453377727},
  {0.23684573268035825, 0.8151079431339333, 0.08562115024620098, 0.4477622025248783, 0.7381697230245972, 0.4140379334525423, 0.4616750327200534, 0.709997078201784, 0.49012064005349587, 0.5252196507750948, 0.40116125422078786, 0.6070771181777144, -0.43143120209245367, -0.9690796755105239, -0.0703987717757364, 0.564810233618266, -0.004974420559449811, 0.37491370259588447, -0.025831380152130382, 0.5004763655496975},
  {1.153502987015936, -0.1493420928711117, -0.3195880768754749, 0.4368650822301843, 0.6815936631667622, 0.4001337282766911, 0.46115605334297816, 0.7164623274815717, 0.496176975669556, 0.4724161501082764, 0.44240621082001413, 0.5263551021846223, -0.43143120209245367, -0.8044420308134803, -0.11311581495271682, 0.5389244738395897, -0.011577607232898673, 0.2872247447298292, -0.03680424613247311, 0.45449285713415133},
  {0.18438713937059184, -0.7983349837762681, -0.41685878180705566, 0.47528139936494906, 0.7657910537492123, 0.4809293920437652, 0.47236831425319264, 0.74662265198537, 0.5847333004707438, 0.4724161501082764, 0.44240621082001413, 0.919528904100968, -0.6045893530270462, -1.2721702703765834, -0.11311581495271682, 0.575637024480637, 0.023582632151375314, 0.41187127906927123, 0.04360809930011156, 0.45952444412618215},
  {-1.2820729124841295, 0.0705148024026914, 0.3381353401346607, 0.40771554507859786, 0.7315011193955664, 0.4824068023705619, 0.4015307539594425, 0.6530567976796705, 0.6068021258209395, 0.22555206515878556, 0.46820725590557366, 0.919528904100968, -0.6045893530270462, -1.2721702703765834, -0.17234852179489138, 0.5443098474972593, -0.038998444329102926, 0.35099824441000277, 0.043351485195185405, 0.4002173019675522},
  {-0.31939817208720084, 0.4188217692297948, 0.6831642108565645, 0.30002355999453134, 0.7804639275739641, 0.5218124287625306, 0.2871611129599356, 0.6592428586311024, 0.6146648161977002, 0.07910526533320077, 0.46820725590557366, 0.6570443296602985, -0.4648016795351165, -1.2187996453008627, -0.17762875776442932, 0.4951084883982356, -0.14831089988674284, 0.41976530942815987, 0.09074837167452579, 0.18099942767726027},
  {0.9048683903088994, -0.5801808043270126, 0.20760342110973812, 0.39099199849141436, 0.989361223590369, 0.5046653875786083, 0.3887223844383672, 0.8958850528197667, 0.5559146731500991, 0.1977096513686097, 0.41791068975048046, 0.6570443296602985, -0.4648016795351165, -1.7391925351077786, -0.17762875776442932, 0.5594701356854301, -0.05948634375470053, 0.721751135641169, 0.06443934394905769, 0.36823633428328506},
  {0.22506348673402768, -0.6507346346654431, -0.2886928143705978, 0.4120483804943458, 1.0482021129123356, 0.4438753018628582, 0.4260050874959056, 0.9931681949653041, 0.524754256606799, 0.1977096513686097, 0.8352258900696772, 0.5090059771951041, -0.4589054117105237, -1.7391925351077786, -0.08665634041878724, 0.5975269047917307, -0.041269296143521594, 0.8136331020014193, 0.0048959063310997164, 0.48325534765350525},
  {-0.1938409182435585, 0.052550689756898895, -0.20849516587239195, 0.22531259231406442, 0.8918384838394978, 0.5032178106551739, 0.20619775964715287, 0.8695520965368725, 0.5990984333017251, 0.01656582877459577, 0.8352258900696772, 0.507896114262295, -0.3230016230646053, -1.1920627010554201, -0.1880250240492923, 0.4900753369875521, -0.21486848062336106, 0.5704033826204673, 0.06323304140806364, 0.21070262433576567},
  {1.6834716207701994, -1.0164357910093895, -0.03156026268395351, 1.0185259503805824, 1.1140274309598537, 0.7366585071373941, 0.955604923442661, 1.1016332184177544, 0.7725755766060409, 1.5895853864926812, 1.0692845588269844, 1.0283560812695303, -0.25624606297232494, -1.2083868308607966, -0.8797611545549381, 0.9330510786827766, 0.7182476009344252, 0.9318902222115676, 0.31864228544552337, 0.6676225286568331},
  {0.8360689727962229, -0.17761424774481727, -0.8789836710411351, 1.1172054211759517, 0.9887661245659146, 0.6569549035798676, 1.0355614232768129, 1.0232662814223226, 0.7694412613066918, 1.5895853864926812, 0.8622112539601995, 1.0283560812695303, -0.441257343286651, -1.2083868308607966, -0.37821956424018366, 0.982353097842504, 0.8590812856022196, 0.7133509488045603, 0.2438657642200927, 0.7634034488673637},
  {0.5930473755442774, 0.4649309902905678, 0.771452044580708, 1.0113697606388325, 1.2479245443346523, 1.0767627927991161, 0.8779341543361424, 1.167771859334833, 1.0421009252306774, 1.4458528274363684, 0.8622112539601995, 1.7212643237680822, -0.441257343286651, -1.5940382258647952, -1.7425862925464946, 1.0269720321544442, 0.6986184023823827, 1.132283461331537, 0.7711711679169161, 0.3392883129922729},
  {-1.719797910309398, 0.18667308398486857, 1.1521215364324122, 0.8717557639597704, 1.2796100363223197, 0.9670717461528707, 0.6439049709889825, 1.1366721276403284, 0.8381769721100493, 1.4458528274363684, 0.7754853981025676, 1.7212643237680822, -0.39604259310576023, -1.5940382258647952, -1.7425862925464946, 0.8961745095217092, 0.5125380270932018, 1.1823871738609193, 0.6358486300196253, 0.10454269185626143},
  {-2.8958556039051935, 0.049971988344588554, 0.26270911357009147, 0.8736587785435254, 1.147696898731509, 0.537742343523931, 0.6898820348299425, 1.0561448807109288, 0.5399556254358222, 1.4139471056110209, 0.7754853981025676, 0.5852368138741592, -0.5640540176370783, -1.058318405452642, -0.5127933175435917, 0.8383511559414148, 0.5362951225904996, 0.9609543224542085, 0.0990544062045335, 0.24038746706530792},
  {0.8334337738127934, 0.1838583979805602, -0.22716186296388277, 1.1261778199198975, 1.4826867452672041, 0.7916771788520088, 1.0010689742709933, 1.2732835269435592, 0.7918391909707757, 1.4372920591951803, 0.766591670319278, 0.8726404707028382, -0.5640540176370783, -1.9706935700071067, -1.0043896194745214, 1.038930449061754, 0.8729597192173899, 1.5480007640525884, 0.38571245443565677, 0.5563567591999475},
  {0.018672066298798237, 0.47864186417118865, -0.4793598674825451, 1.2688459266815775, 1.5833062569614944, 1.1058503133057065, 1.0986218628867164, 1.3874255569330727, 1.0402067159429793, 1.5881731798374679, 0.9860796596069542, 0.8726404707028382, -1.2735733734456167, -1.9706935700071067, -1.9695764010825798, 1.2048353622325776, 1.0998387292414196, 1.7451971587565027, 0.8055118657238314, 0.4219925163193026},
  {-0.04415096929121073, -0.6074336184869752, -0.33674147751931466, 1.3110237647869507, 1.5435266438841186, 1.2332121409828274, 1.2290552680612545, 1.568745246157824, 1.1761529027859094, 1.5881731798374679, 1.0522254992051499, 1.531346486500714, -1.2735733734456167, -1.2824092600081007, -1.9695764010825798, 1.3319128884485607, 1.1706464382216553, 1.672102748750142, 0.9907742295584254, 0.9855940944993543},
  {2.157237241874895, -1.0027429259633127, -0.1399910433200837, 1.178067397402188, 1.3478963576226384, 1.1250760428491233, 1.2068176137186257, 1.353729320276851, 1.1665492293374489, 1.403660655951331, 1.0522254992051499, 2.015249913938721, -0.6595628844175171, -1.2824092600081007, -0.8668865246076667, 1.234279980512389, 0.9692403460272109, 1.3256679293810663, 0.8284632402495025, 1.1908505494710582},
  {0.158493042759243, 0.28570671848435814, -1.570796235989898, 1.1279739978934145, 1.176053287761747, 1.316070277018489, 0.9759846094478402, 1.2122644687609974, 1.1595183556683397, 1.8008361378272073, 1.7402214521157933, 0.47526877125441197, -0.49406878145098126, -0.9051593654021506, -1.5973075260324374, 1.1020643950463407, 0.8734130112715427, 1.00902090160892, 1.1698591133952179, 0.527975099250616},
  {1.1431873658036047, -0.011222761689617956, -0.6161343197637439, 1.3763257807649998, 0.9145903696377281, 1.6006961054320958, 1.3038496457928068, 0.9177187902013918, 1.598815729023387, 1.4377215833479597, 0.8057680879828558, 0.9124173483737409, -0.5591656741229404, -0.9051593654021506, -1.5587830662401372, 1.2757282405527421, 1.2875309551407703, 0.6031009802555631, 1.600840159933789, 0.8758394293111958},
  {1.7235964181681604, 0.13482195150539997, -0.6865041938056532, 1.3731803454161144, 1.4422541215185338, 1.8693089847687632, 1.2876899858691984, 1.419026172986331, 1.8653537484300444, 1.5380462162848139, 0.9127384065894163, 0.9124173483737409, -1.0326188722668763, -2.1998568585612013, -2.1251420950785205, 1.46190857502698, 1.2882211208960355, 1.4723697928927102, 2.1029901730864724, 0.9809054460949705},
  {-0.6736956509670908, -0.10907841648749161, -0.6369877920253292, 1.2941532014141781, 1.6686973950612964, 1.7091393419168606, 1.1118147209688785, 1.6641543690627794, 1.5235435303254126, 1.7543685959078128, 1.0423215066590201, 0.6531971247208223, -1.0326188722668763, -2.1998568585612013, -2.1251420950785205, 1.4040007109996295, 1.1441125773765661, 1.9100205165945818, 1.7973828671479741, 0.5244427752828198},
  {-0.5643449989734701, 0.6321479053591008, -0.5640361318269315, 1.281498472013604, 1.4057770261982896, 1.5507886815572967, 1.0552865542953922, 1.328154652747293, 1.2118584749738748, 1.7908419879116444, 1.0423215066590201, 0.6531971247208223, -0.9076122458200618, -1.3070006273985333, -2.864767955064158, 1.2206271598765273, 1.1223416538024498, 1.414243254791856, 1.5120132055342452, 0.43920346915767644},
  {-0.5164807101244987, 0.3676396523334862, -0.21810662899282235, 1.1459739497980568, 1.4273116751156958, 1.6969566602642536, 0.9623788459304433, 1.34719136184447, 1.4198691705054718, 1.7908419879116444, 0.8577487641738316, 0.9533181439062006, -0.7289060966097639, -1.3841428806479992, -2.864767955064158, 1.2234122443702138, 0.9026511384718234, 1.4474854812300035, 1.7670721280689126, 0.43819803985260725},
  {0.06047129822420143, -0.7494580658259165, -0.2080802012688938, 1.5018199503467262, 1.4798805960005956, 1.6691337846530825, 1.404270905386071, 1.5753746621260454, 1.6799294568454906, 2.2266490241519525, 0.6893737603792987, 0.9533181439062006, -0.8006050379169658, -1.3841428806479992, -2.4313939075539475, 1.5407652159445941, 1.507917645707451, 1.5558766665050965, 1.7161588714846396, 0.9584392951270971},
  {-0.15294423556488349, -0.2913841839178659, 1.0317995124603692, 1.6900051889326746, 1.5688752404147128, 1.6582432834822811, 1.578855115050824, 1.5594637262902555, 1.6982499318531639, 2.2266490241519525, 2.6534334639359187, 1.294771883940422, -0.9353068812922455, -1.1082986230991296, -2.2443741476887134, 1.6656553565848973, 1.8682118674987427, 1.7141563251067382, 1.7173932862449937, 1.0087252928169834},
  {0.38210990237426556, -0.9409695603334406, 0.5497799134375365, 1.9528193277090944, 1.591204739468258, 2.219049841889813, 1.8786905273158667, 1.667383124662003, 2.3076364514552874, 2.1918972732333915, 2.4099178197956945, 0.8785623260569603, -0.9740956154640883, -0.9636807917458626, -1.8280449996746209, 1.974605562722594, 2.4171142602196896, 1.7771598241521314, 2.8238678495883858, 1.4675651203728728},
  {0.08221090699238673, 0.5816981635809144, -0.33062172081146907, 1.374343353003127, 1.0101290912258685, 1.9952315525689277, 1.2944436840322762, 1.0004777985733349, 2.097181584058742, 1.9451267770936562, 1.0111418975082076, 0.735429620162991, -0.8252283166385165, -0.6537608295892129, -2.2714670530892436, 1.4433784884032559, 1.2794539433037417, 0.7524252156216701, 2.3465305192031267, 1.083412758327405},
  {-0.4349364318483307, 0.33551877745394526, -0.23900442300567482, 1.1440832685156717, 1.0380335762193942, 1.9207588027631433, 1.0305585913137323, 0.999690166850916, 1.9135191355624972, 1.4408870926088555, 1.0111418975082076, 1.0741192355539244, -0.6299545817629104, -1.1143404703481232, -2.2714670530892436, 1.2773745345843581, 0.899364877015574, 0.7899088180247492, 2.195322820353788, 0.44399400608853246},
  {0.1401921167306433, 0.7723224172854003, 0.9112965286050644, 1.3599555939595342, 1.5871184935080564, 1.8851548691754567, 1.1231339755371923, 1.5769540950796048, 1.840164276186844, 2.017895345675521, 1.4002526023392545, 1.0741192355539244, -1.3764199017010685, -1.9930944258224967, -1.7548832611057983, 1.4947803197973004, 1.2544834719993807, 1.7611850222502836, 2.1406881186284825, 0.3745666905007617},
  {1.941046878001443, -0.17543147603685924, -0.7036063860516144, 1.6499162764459228, 1.6490331011350756, 2.1692519918777715, 1.4345877293813951, 1.710329949440436, 2.1253436207431746, 2.0662948463900217, 1.4002526023392545, 0.9041408330317615, -1.3764199017010685, -1.9930944258224967, -3.051420018509543, 1.6691872446589355, 1.8028324146530195, 1.8709654859401388, 2.7203821748580035, 0.671709049778786},
  {-1.3781319931549318, -1.2893416794922612, -0.4797213281392943, 1.5325804586876375, 1.1700207850885986, 2.2375084540734345, 1.345780208069504, 1.25749955738176, 2.2763628479499096, 2.0662948463900217, 0.8546592342375866, 0.9041408330317615, -0.9742691726314773, -1.0459276600419205, -3.051420018509543, 1.6100689332802949, 1.572662404928272, 1.0376728096746002, 2.8635811349073923, 0.8490941755268547},
  {-0.9784299247688734, 0.30675074372164207, 0.06457750058973605, 1.3767802653719756, 1.4210435406616386, 2.0106601992735134, 1.2282466252276147, 1.4039973784233288, 2.1113542724901517, 1.632338631707476, 1.5778809491794858, 1.9968225751295545, -0.9742691726314773, -1.784096928060065, -1.5564500699145567, 1.5576868061361986, 1.2876997213929369, 1.4350596325982772, 2.3756014373258036, 0.6210871106002706},
  {-0.3219858310219939, -0.31081142553919616, -4.281881654733855, 0.582116806136509, 1.1823254452119873, 1.414713770764191, 0.5183805631366661, 1.2180092615080012, 1.5125605311434367, 0.7452016981243773, 1.1351014471209395, 0.34861119838846083, -0.4216361416588188, -1.104549027792284, -1.5984475968230671, 1.0651813885081045, 0.14067139437270165, 1.0200957858288897, 1.6682980883342278, 0.23921144310379241},
  {-0.9312203791047232, -0.7759341157494145, -3.626310685609167, 0.5945791904145667, 1.2841379961216306, 0.8920983254360557, 0.5689604766980304, 1.4020082181788043, 0.8508777470518933, 0.7452016981243773, 1.1351014471209395, 0.29017880201189367, -0.7233588409717004, -1.104549027792284, -1.05813094000898, 0.9445133618233501, 0.157979007224431, 1.2042935217239144, 0.7924640566552544, 0.4638468213088854},
  {-0.5398940417427514, 0.2818373528898666, -0.5357793378775738, 0.504766146465759, 1.0742418550142476, 0.7288944176554734, 0.5196739907685309, 1.1888212104606017, 0.5879102148315618, 0.5794222821095779, 0.7804498724143754, 0.29017880201189367, -0.7233588409717004, -0.8394295065559564, -0.7278450007342463, 0.7431467140977623, 0.05612763024522751, 0.8454254125737676, 0.31592432039106433, 0.43630656251648603},
  {-0.45185214903460835, 0.6781315002796277, 0.27819998943163504, 0.42267862098437564, 1.1394459524166924, 0.8758385234578122, 0.37993982522398, 1.1620615689638052, 0.7693866359795701, 0.5736945955301124, 1.212078030884549, 0.8350402352660895, -0.32588765046597223, -0.8416536194874834, -1.2625608008044757, 0.7129348545719228, -0.029758366825465486, 0.9580389751346153, 0.4907149275657331, 0.12716380165546734},
  {0.10102153635682173, 0.24801941062279315, -1.1576820214619223, 0.5833111796222342, 1.2359573244564181, 1.2519322648024556, 0.5178707101747736, 1.2572903163695193, 1.127737765373575, 0.9516185433586642, 1.2382125240596082, 0.8350402352660895, -0.7320624441127315, -1.0365818145480004, -1.3901858342240567, 0.8910117839041396, 0.14152512586791202, 1.108468142017147, 1.0459697790702878, 0.31398230865212634},
  {-1.3143235690717672, 0.1727234049695146, -1.056035823802647, 0.476265389104868, 1.1008924697873708, 0.8944383247905728, 0.38294927831736364, 1.1244925049168057, 0.8248495755996136, 0.9516185433586642, 1.2382125240596082, 0.34637054327059114, -0.7320624441127315, -1.0365818145480004, -1.3901858342240567, 0.7270494981993383, 0.03160367106797544, 0.8863693077441456, 0.5374697832147881, 0.2247660398285029},
  {-1.3136486142495016, 0.39225298985926793, 0.34143621580384076, 0.48081117120400346, 1.056245162642483, 0.6715534459873754, 0.40665831359668814, 1.1512991902437502, 0.6252326677233765, 1.0899027203987548, 0.7070387457814323, 1.0371022626445547, -0.7264259344321675, -0.8248708406251114, -1.0140870547021608, 0.696267664778003, 0.03638448269206466, 0.819029597660266, 0.24560336067600874, 0.250154286994032},
  {0.5308019373116609, 0.7736043061734595, -1.86414266033349, 0.7055910488365861, 1.066189495887887, 1.4156324604440147, 0.7164367665436597, 1.1958589275255413, 1.1674608589125348, 1.0899027203987548, 0.7070387457814323, 1.0371022626445547, -0.7264259344321675, -0.8248708406251114, -2.179472917269592, 0.9677454490518099, 0.2868359122460591, 0.8448326537834691, 1.3517262059159674, 0.5718139699051805},
  {-0.2609505289974965, 1.2327449707651499, -2.1098232484476775, 0.538529015836559, 1.0135986383329973, 1.4300311290810443, 0.5181213446465124, 1.1114722631356868, 1.2103751389468527, 0.7071389106514779, 0.555478763754987, 0.4331808617279874, -0.5628712709247335, -0.824544693547789, -2.179472917269592, 0.8625188121844526, 0.09186038824162217, 0.7853311654383988, 1.396412155395689, 0.4117891850595233},
  {-2.794488776438901, -0.24302444715278115, -4.185187662310796, 0.5164007241914623, 1.2082506711955372, 1.786468096691923, 0.457354394396271, 1.348715105308384, 1.6537946042061673, 1.1644348577057393, 0.9161915450722772, 0.2207941109164732, -0.443722515185923, -0.8082720033590874, -2.6996726017085244, 1.0811281558860582, 0.09820501315187957, 1.062184430580799, 2.3087814851086264, 0.3759148161862044},
  {-1.3461079346434324, 1.420839712244399, -5.122769812037645, 0.6260220441139231, 1.0965537678841797, 1.9905770878136113, 0.647568837574157, 1.2305068885046027, 1.9705775356100166, 1.1176655028939735, 0.9485879791410201, 0.2616324590052232, -0.6767644350830074, -0.7326984925215144, -2.6996726017085244, 1.1631502304525023, 0.1980433296336008, 0.9259103087796843, 2.8967920728987813, 0.664993018845813},
  {0.15091012033068962, 0.1627331210182827, -1.171072487765104, 0.600283620878185, 1.0320606526872014, 1.4299508702991086, 0.5559292056877874, 1.0959890668273817, 1.365881940617886, 1.1176655028939735, 1.0220966276561536, 0.8177338876262951, -1.157867901140981, -0.7326984925215144, -1.651561980841339, 0.9106712836581615, 0.1609130976975013, 0.7787898410368579, 1.3300759676199967, 0.5451179649331594},
  {0.1489127266105601, -0.002791642395755622, 0.0989171458843306, 0.47123884448830344, 1.1543655481216242, 1.2993621164884652, 0.44827438951082227, 1.0969305371634455, 1.1951836712602342, 0.6973920750425425, 1.2892324628417706, 0.8177338876262951, -1.157867901140981, -1.2929991851754228, -1.5674664895781523, 0.8212463643969367, 0.019307926672222173, 0.9717725661829733, 1.0902334145367405, 0.37752815883635404},
  {-1.0849980605624794, 0.256307772716329, -0.13833948419816067, 0.5509783402761589, 1.4131861436500222, 1.5113388281599913, 0.5155809468450827, 1.2702561837232205, 1.5268604854784404, 0.7056105995113207, 1.2892324628417706, 0.6939816352858945, -1.7082212518437105, -1.7474086997951648, -1.5674664895781523, 1.0024438997471683, 0.11013048107746073, 1.4200564548139676, 1.43743040633325, 0.46432994408416917},
  {-0.33422084611417524, 1.1024290594669235, -0.8811898700862867, 0.6533788175705793, 1.556924036915943, 1.59553342900879, 0.5956051047804218, 1.5835113781353327, 1.569045775791351, 0.832858066394928, 1.2071411481469378, 0.6075382423533365, -1.7082212518437105, -1.7474086997951648, -1.8747930801092292, 1.134870044889144, 0.22340314595294633, 1.7169326654236914, 1.6003323829716007, 0.502722784189474},
  {-0.07956574348723355, 1.1069621445916134, -0.40327178120443, 0.623006090600288, 1.2817187269776058, 1.673114035989659, 0.579188287474378, 1.3992932835285747, 1.5225828852655967, 1.0880308523778874, 1.2071411481469378, 0.9515413694996154, -0.8706934457250718, -0.8032792987289697, -1.8747930801092292, 1.0593003325691572, 0.18718951392646832, 1.2136983428831296, 1.7260605447731228, 0.5862700033885939},
  {-1.7948545376368392, -0.46198496855423776, -0.023837683122510694, 0.6137394666220057, 0.959903005144005, 1.8042427619805275, 0.6196919547823404, 1.0802988397992188, 1.729533112902634, 1.0880308523778874, 0.668530127834984, 0.9515413694996154, -0.8706934457250718, -0.8032792987289697, -2.168368880961217, 1.0494154082016303, 0.18931617672425619, 0.6747909129038206, 1.9668598593989208, 0.7190255862930474},
  {-2.8575175864250615, -3.198665101983055, -2.3303085984829126, 0.5487145086537809, 1.356066024293496, 1.7765724595057193, 0.5365994583305906, 1.4832292396663664, 1.8651515960810896, 0.5333623363526081, 0.8188667334062327, 0.41755055583353523, -0.6815801651388398, -1.31678651241516, -1.734299548429996, 1.1828216307697035, 0.13496878232676934, 1.5607166591864055, 2.031410020212588, 0.4319871994687447},
  {0.08141325899070419, 0.16076498991689905, -1.2443637126156404, 0.5216866158048433, 1.040186919744781, 1.836432741464316, 0.5462727745327948, 1.1372353117858727, 1.8560393815328295, 0.7258493908202058, 1.0428252238516982, 0.9954128256622158, -0.3318614276562863, -0.7386988303806143, -1.9486219805425375, 1.0322858146320455, 0.07310167839083716, 0.7912810767894157, 2.0624190596122878, 0.6244488399116206},
  {0.00046038461299957714, 0.24198815660895212, -0.35346861239598637, 0.42087988453056, 1.2721300886707207, 1.5784007026035989, 0.3894993795997194, 1.3256353516109476, 1.480075011386291, 0.7258493908202058, 1.0827121235941548, 0.9954128256622158, -0.3318614276562863, -1.0620889782507825, -1.9486219805425375, 0.9291514101304659, -0.03250801246507911, 1.1700438903224462, 1.5559566139891434, 0.28684128818255106},
  {-0.4335630368504309, 0.32626523102759236, -0.445638607737504, 0.37231123676223443, 1.3763649448728437, 1.6347201943052199, 0.3088730905045282, 1.5137345261899122, 1.4760613918098777, 0.5831616472453623, 1.0827121235941548, 0.7669901498382241, -0.27203822491924484, -1.0620889782507825, -2.324525912762067, 0.9470643818418262, -0.07973236157852828, 1.3543024219908344, 1.657496283406625, 0.17998899275520108},
  {0.16143938709093733, 0.3192455740515555, -0.7699800626714951, 0.38341321377212445, 1.0359264219427693, 1.7332045797511002, 0.3287239632434041, 1.1812205088761525, 1.6746880407923486, 0.5831616472453623, 0.5658690979240574, 0.8941122840415494, -0.27203822491924484, -1.0372467022989644, -2.324525912762067, 0.8912754471724947, -0.06971998874883814, 0.7864223229124201, 1.8460337658482797, 0.21279742122220277},
  {-0.5411952726548459, -0.4575067749649661, -0.08335773371874168, 0.3865289435601214, 1.1526875985933054, 1.8776636992025975, 0.39091173361857895, 1.234713885761259, 1.7389434725829207, 0.4641535400944006, 1.1280745885626293, 0.8941122840415494, -0.6169971777149784, -1.2880125284984256, -2.5943543523455963, 0.9733886251454767, -0.06540502745285916, 0.9743065150181031, 2.109068314232209, 0.3777992695113881},
  {-0.507155886153372, -0.1254112458202292, 1.51432826422266, 0.5353800124328324, 1.2592301385200912, 2.111940184809758, 0.5613093571416303, 1.3415163847015583, 1.9545379505544702, 1.0979613119496057, 1.1280745885626293, 1.4540560851568622, -0.6293760120297841, -1.2880125284984256, -2.5943543523455963, 1.1763977576795954, 0.08920874336564943, 1.147168451499137, 2.634668108132965, 0.5690519996273632},
  {0.28847707220964997, -1.0969945103682972, 0.19290170197563875, 0.5747602838215543, 1.1878309532916198, 2.0893711554515915, 0.5833967439970632, 1.3127416706777493, 2.129232523839417, 1.0979613119496057, 0.8016658760535256, 1.4540560851568622, -0.6293760120297841, -1.2179774816640845, -2.020595185154212, 1.184298312524846, 0.13207344530032772, 1.0559835783423286, 2.5397614808321425, 0.6198696691949515},
  {-0.7924635026550878, -0.9173029033019071, 1.6492642114135434, -0.7694074318063269, -0.7270705075054561, -0.07771954966314341, -0.7606604896896387, -0.7127652268420676, -0.034979106055982534, -0.8156161891375804, -0.8108424196797049, 0.25355686448485787, 0.6718859861452013, 0.6205681848555279, 0.7005394879176656, -0.5889743784702253, -0.685091052708572, -0.729493529444547, -0.3570703174534442, -0.7198842025679206},
  {0.1876975778472378, -0.3208066105203762, -1.1204325031030524, -0.8266283116986567, -0.8190751568681568, -0.860586533964494, -0.8250088622163231, -0.8394544322447645, -0.8575111019391441, -0.8156161891375804, -0.8108424196797049, -0.9814251199462539, 0.7902592631554279, 0.7148219543614723, 0.7005394879176656, -0.818019098457994, -0.6917023290676988, -0.7627788195554944, -0.6626694239946292, -0.8139490035084926},
  {0.18276579597530995, -0.309215723703564, -1.031167613147387, -0.8615715586873464, -0.9197529443083484, -0.8762339509984597, -0.8539325471878552, -0.9185409575026295, -0.8807459679259767, -0.8471381160362655, -0.9472705474596608, -0.9834828908338805, 0.905380227376313, 0.8372214948441927, 0.7119332783669554, -0.8549314261152201, -0.6929177850796505, -0.7724126539599467, -0.6680584103013462, -0.8328369187742432},
  {-0.02500414353491756, -0.2592682492765126, -0.3166813822634815, -0.8708513316497416, -0.9034122182379836, -0.7864926851014928, -0.8638736423161596, -0.9051654369459761, -0.7719980260763082, -0.8701922023580804, -0.9063444866711068, -0.8252714243970688, 0.8712320432921407, 0.8372214948441927, 0.7285425627609724, -0.8823553099447201, -0.6931367073830204, -0.7721076459980051, -0.6796265885679411, -0.8408543293888336},
  {0.01925478773328886, -0.017359414803006564, 0.11157233022624992, -0.8674372536408644, -0.9339274600302214, -0.8657763040863057, -0.8600521033487829, -0.933532975599262, -0.869138206658251, -0.868581964279085, -0.9063444866711068, -0.8252714243970688, 0.8712320432921407, 0.8796027737254325, 0.8117018803158159, -0.9267458689221547, -0.6931001882305313, -0.7755791004893189, -0.6903513101504721, -0.8372697962975943},
  {0.05862819615892991, 0.1875515200876053, 0.3660672432865818, -0.8655353088049698, -0.9231987340512205, -0.8440970936036045, -0.859562295484837, -0.9190200394056071, -0.8327735564739083, -0.849154995289831, -0.8619452961756501, -0.8264142296326085, 0.8828619963079765, 0.8796027737254325, 0.8117018803158159, -0.9063573791267088, -0.6930685999340747, -0.7743576437406139, -0.6860013496692314, -0.8405011642718522},
  {0.025370658421417554, 0.25476212509955615, 0.5094084132987649, -0.8666611292819979, -0.9173634994535367, -0.8688595349692629, -0.8605849256346755, -0.9125377910428751, -0.8644683449175398, -0.849154995289831, -0.8619452961756501, -0.8264142296326085, 0.8828619963079765, 0.8811452055039238, 0.822816453993167, -0.899292182813106, -0.6930880151797018, -0.7733724830641625, -0.6855845319552606, -0.8392526665116603},
  {0.056931272626443936, 0.1340650609453746, 0.14072580088052863, -0.8700240376849033, -0.927130208066265, -0.9027544612093352, -0.86263912368979, -0.9272432531698758, -0.9098185957729988, -0.8640436232468293, -0.8878760255575496, -0.8602857911633639, 0.8842456952651618, 0.8811452055039238, 0.822816453993167, -0.9327860024768815, -0.6931423701629946, -0.7749344119759387, -0.692744993546353, -0.8389967879829504},
  {0.0815703973550615, 0.06807176149934278, 0.009021862892713069, -0.8693718257864903, -0.9403325593988512, -0.9069037167456634, -0.8635751590164983, -0.9388891067469494, -0.9119570976376925, -0.8553448959909465, -0.9186071644432396, -0.8793001359434014, 0.8842456952651618, 0.8846680072255028, 0.8242221752808271, -0.9399159964921774, -0.6931278857734002, -0.7758041556763947, -0.6933082741211233, -0.8407809405849009},
  {0.05156607923326006, -0.07957031988148969, -0.06560607772313515, -0.8709142684821736, -0.919047547143726, -0.8978307792488177, -0.8656337669931611, -0.9200387907420557, -0.9012875541347791, -0.8553448959909465, -0.9087407052253687, -0.8952718098530318, 0.8876110265015399, 0.851332027239998, 0.8242221752808271, -0.9313901493366773, -0.6931555447939561, -0.7746423864447677, -0.692662684211785, -0.8455313518440795},
  {-0.04352455086590713, -0.20784284476348033, -0.10780674183412697, -0.8691131473820867, -0.9038166865337924, -0.9063061171309942, -0.8615078255266119, -0.9016324059940515, -0.9115233793021017, -0.8677964133080319, -0.9087407052253687, -0.8999056824267283, 0.8859142095105107, 0.8364295273159923, 0.8262128246443016, -0.9208356063253196, -0.693100072663593, -0.7727388771136354, -0.692957366947094, -0.8387228246444708},
  {0.7922377596302747, 0.8988061887621054, 1.1761998310632937, -0.7944180922010375, -0.6689155708665592, -0.379942578804137, -0.7831282145917601, -0.6220940529377298, -0.30669043373060023, -0.7440638894143663, -0.4988370262211758, -0.24582537168947483, 0.8881775765069091, 0.857910675149642, 0.7494696835233542, -0.6617816441589426, -0.6876896138375722, -0.7184494389170747, -0.5415818057110008, -0.7579046624458637},
  {0.042364660118924084, -0.12865959945948982, -0.634090985931547, -0.8667212580262973, -0.9162646763416802, -0.862513905582355, -0.8602441589695808, -0.9156912855690635, -0.8627360796809816, -0.8618537993658171, -0.9087935356313367, -0.898955800656251, 0.8881775765069091, 0.857910675149642, 0.7494696835233542, -0.8932924073951225, -0.6930903650407795, -0.7742083457867535, -0.6813148985367101, -0.8400065501070272},
  {0.07459282770151829, 0.00860286015103857, -0.16093633753648526, -0.872124688185799, -0.9319590569421423, -0.870272286350582, -0.8650065205047051, -0.9320313350591765, -0.8664648257615423, -0.8601991543515803, -0.9087935356313367, -0.8956711672110337, 0.9023765881765695, 0.8738579749827782, 0.789048014532794, -0.9284317749737001, -0.6931685268133534, -0.7755113385335909, -0.6902517009886058, -0.8424029219611464},
  {0.07009260698967289, 0.03926397306261614, 0.12248801826644103, -0.8705678707532469, -0.9266329840424292, -0.9102016812525017, -0.8631989479017403, -0.9228617704109987, -0.9161023195765825, -0.8601991543515803, -0.9057395767511288, -0.8868351091608935, 0.8980179653417889, 0.8738579749827782, 0.8325918281417528, -0.9346786379967336, -0.6931482640768458, -0.7752381533592694, -0.693232497273426, -0.8417021624944789},
  {0.041488869941488725, 0.011765151704411626, -0.07775994950789185, -0.8711080934225628, -0.9376045223133308, -0.8885486735267966, -0.8629928607123796, -0.9362697456332734, -0.8889789127304251, -0.8710087720692583, -0.9057395767511288, -0.8868351091608935, 0.8935625520676991, 0.8776161753801901, 0.8097281216362003, -0.9333329145799526, -0.6931584339674126, -0.775762121098717, -0.6920390794996383, -0.83966861713637},
  {0.04886497892492264, 0.018466084900867635, -0.1896291091905399, -0.8695683028101161, -0.9553932484639938, -0.9109982976140201, -0.8615653903314212, -0.9537383819388585, -0.9156553916680761, -0.8659055373558269, -0.9393191638834821, -0.9265940863656429, 0.8935625520676991, 0.8867017551571509, 0.8097281216362003, -0.9415706165091468, -0.6931361680706416, -0.7763920856357354, -0.6926305623970358, -0.8381094481797721},
  {0.03639297526693095, 0.02291916071165563, -0.0008975569377176142, -0.8673048946295994, -0.9513811553562926, -0.9128966240609532, -0.8594124524820681, -0.9515709165434515, -0.9253507352057296, -0.8605350529643021, -0.9393191638834821, -0.8843902321848756, 0.8942555980180479, 0.8812557159851474, 0.792306237523104, -0.9454612129592904, -0.693100072663593, -0.776269306671559, -0.6936089487237004, -0.8344079558872525},
  {-0.021785084433197505, -0.1177569642782807, -0.021781930818712207, -0.8684587959879535, -0.9366425447393055, -0.9138764447489638, -0.8622019990597418, -0.9312520114841969, -0.923981383062003, -0.8605350529643021, -0.9479670867759054, -0.8843902321848756, 0.8884017980645247, 0.8648700414171702, 0.792306237523104, -0.9381076382578774, -0.693102576613922, -0.7753111399517707, -0.6936333216574723, -0.8407768499731673},
  {-0.0347636600465762, -0.1779180380861464, -0.09428207421236728, -0.870862564002272, -0.9386708152631702, -0.9277201471139931, -0.8648142762241618, -0.9361840710784344, -0.9344276195799937, -0.8637799915034929, -0.9450692451114554, -0.9143996490334905, 0.8884017980645247, 0.8648700414171702, 0.8333744410205021, -0.9360276044780743, -0.6931313527815478, -0.7749352035875716, -0.694010268675716, -0.8442698825387847},
  {0.11342379563208284, 0.08362388126650751, -0.07580396528961544, -0.8658613144653142, -0.9173895832715212, -0.9141410997603767, -0.8568580231120757, -0.9142196506741749, -0.9185041435309907, -0.8593425669762624, -0.8747124671202666, -0.9153137639029654, 0.8970811692143561, 0.8699633027269368, 0.8091638116118552, -0.9305317546603704, -0.6930568121063727, -0.7746382700642791, -0.6934998787187796, -0.8320324945944297},
  {0.18126202168234645, 0.17273173672042627, 0.021400521886088212, -0.8679484593994772, -0.9330981100158331, -0.9207862813583069, -0.8604842992429831, -0.9309945350596016, -0.9286602765765178, -0.8593425669762624, -0.8747124671202666, -0.9104237717317981, 0.8989044821503651, 0.8925129707863345, 0.8091638116118552, -0.9356560722192327, -0.693038745141692, -0.7749634641228459, -0.6939774710864626, -0.8374322097305731},
  {0.029392774272868988, 0.07097491109421328, 0.16482524987715427, -0.8564949142126703, -0.9379793652811619, -0.9146219454313829, -0.8565939702159466, -0.9362071206824266, -0.9342675350116957, -0.8696121941575896, -0.9094680357037769, -0.760501990751797, 0.8076409172015939, 0.8741867996909335, 0.8620177164359087, -0.9397793426541611, -0.6928733303307346, -0.7756999004244151, -0.6932174049761732, -0.8380372165883694},
  {-0.49347929737078405, 2.4539304615476576, 1.2179023610694055, -0.8013354161602078, -0.4607476627605628, -0.6007513250317953, -0.798397485414055, -0.5178598540642624, -0.6321482534674231, -0.786256152725159, 0.24014154686655048, -0.34922176522747433, 0.7857473819154666, 0.9320608796761055, 0.7850640629946626, -0.5944969782714217, -0.6892132098292271, -0.5280145158096562, -0.6141598973205274, -0.7912596181700211},
  {-0.6108087067488244, 1.153766637523287, 0.9552821055692821, -0.8232092638195133, -0.8277067120474116, -0.8101500962511783, -0.8139083586227788, -0.816039512609277, -0.805547057001101, -0.8682292431880004, -0.6673005058867365, -0.7104514366045562, 0.7857473819154666, 0.9033024551228845, 0.8372593318878919, -0.7606902168388051, -0.6899714445111251, -0.7356784702892065, -0.6661316420359878, -0.7898132101552927},
  {-0.053242932425301544, 0.3274421864139492, 0.3376105246886788, -0.8643590987464512, -0.8702243699604576, -0.8623472780228228, -0.8586108136414755, -0.8670437998032704, -0.8646687102310362, -0.8636525740855016, -0.8092695192428642, -0.8042256149277626, 0.8684785354521812, 0.8482059514519352, 0.8452716275766026, -0.899598959763255, -0.6930114328219508, -0.7688602175986434, -0.6880477300217704, -0.8376665587238425},
  {-0.041102428088493605, 0.042406096877753006, 0.15011494892189328, -0.8704256165742765, -0.9365634576481628, -0.9091836432343231, -0.8636214749839897, -0.942439713021918, -0.9134326817946854, -0.8636525740855016, -0.8817558834577247, -0.8518666165930293, 0.8944693126282878, 0.8482059514519352, 0.8452716275766026, -0.9382418544983488, -0.6931211443686686, -0.7756982380399867, -0.6930373786483495, -0.841744710238893},
  {-0.07816957481334012, 0.1299723578666659, 0.21723317798885886, -0.8493919889997846, -0.9056462544716843, -0.8778450742091811, -0.8553120036636136, -0.9315764346603872, -0.9000819572267785, -0.8514439909865181, -0.6499274518828396, -0.6637319005705307, 0.7601590868360961, 0.8730704604710716, 0.8159646792471137, -0.9273486126072542, -0.692619429767386, -0.7737055140778892, -0.6906067529129251, -0.842960967519763},
  {0.004426135616366057, 0.13859804804946538, 0.11627308457081395, -0.8462560231481022, -0.90307762512811, -0.8647849465417505, -0.8523027156475074, -0.9247146704519228, -0.8849027572970913, -0.8514439909865181, -0.6499274518828396, -0.6637319005705307, 0.7601590868360961, 0.8730704604710716, 0.8159646792471137, -0.9244562865394931, -0.6925709301756313, -0.7734829920480383, -0.690250664801033, -0.8402164899894908},
  {0.06136858105835646, 0.05053803279843734, 0.044026687617681214, -0.8687002692809418, -0.9459930662394492, -0.9040572899947587, -0.8633754862584805, -0.9462596292235311, -0.9144625696486905, -0.8538331318518863, -0.9191161575899407, -0.8532576801947068, 0.8471941555679814, 0.8877570036474665, 0.8192039296004852, -0.9430089898291336, -0.6931217607256727, -0.7760570755929284, -0.693137077913483, -0.8403328302166271},
  {0.010783407270028935, 0.017011336686540982, 0.02532255542153447, -0.8730896899012025, -0.9603838926166441, -0.9282878177819744, -0.8647817088356154, -0.9589852332676185, -0.9377021930137031, -0.8714954118418062, -0.9570094837861302, -0.8661754869347578, 0.8971667375737454, 0.8877570036474665, 0.8434937403859485, -0.9530629774837741, -0.6931801605518044, -0.7765261054850913, -0.6942828310589331, -0.8405351809378481},
  {0.016794661384060973, 0.026752133708268035, 0.0747716799618872, -0.8731912045158369, -0.9572951388110188, -0.9240644683967834, -0.865029159674151, -0.9579798589334867, -0.933982285513923, -0.8751863848045712, -0.9458617720667125, -0.8661754869347578, 0.8996205498676083, 0.8758530136860813, 0.8434937403859485, -0.9517391076588955, -0.6931827800690719, -0.776441719685084, -0.6940404082185874, -0.8412512263746784},
  {-0.12511508817143766, 0.020694632228540333, 0.32952782648367235, -0.864196185061934, -0.9517604351596771, -0.8969617649324625, -0.8568465620325437, -0.9530018030312825, -0.9060125000360407, -0.8751863848045712, -0.9458617720667125, -0.8073752802194358, 0.8702919190478688, 0.8758530136860813, 0.8487917401164433, -0.9319652527852678, -0.6929350815980763, -0.7762822099411668, -0.6906370726623307, -0.8362140417034329},
  {-0.04998928580316518, 0.06221777528820739, 0.22986208712524564, -0.8577062253728461, -0.9348660198668192, -0.8746691424147353, -0.8511708986700297, -0.9390571836360603, -0.8883758607105829, -0.8566546618335977, -0.8652166002672653, -0.8073752802194358, 0.8702919190478688, 0.8790278398181129, 0.8173992792387867, -0.9242112973879817, -0.6928701715010889, -0.7755878082172754, -0.6902594949212164, -0.8326906255809252},
  {1.980647880851547, -3.447857969691085, -4.182084433399358, -0.3903032540936644, 0.13746659723990193, 0.18322527556514853, -0.4154298756120937, 0.2450750202968194, 0.28761392679705533, -0.15134233964791077, -0.9393498841799104, -0.8700544430813082, 0.8100380964989982, -0.24445023489130016, -0.4147913199428867, -0.12918665368691454, -0.5831322755214159, -0.007652883991718267, 0.14653328665700677, -0.5453022223341991},
  {-0.3710492962475124, -0.04590362584912766, 0.01365498683594107, -0.8109436240020463, -0.9168947865747593, -0.803497796675504, -0.7965677688734761, -0.912600601213754, -0.8110084064060095, -0.8562299677155447, -0.906041748248175, -0.8386751981650078, 0.8100380964989982, 0.850928461705985, 0.7337473447213045, -0.8748201236279626, -0.6902732283092243, -0.7746416739942985, -0.6841701809703499, -0.7597368528237657},
  {0.13983044228876707, 0.05148910216500395, 0.4090329608618784, -0.8536217051791082, -0.9348108081239459, -0.8688687071285034, -0.8451308861742479, -0.9367065973689366, -0.8744818773633082, -0.8511257780142585, -0.906041748248175, -0.8326527122435562, 0.8720353571797419, 0.8731424072473647, 0.7793597130347958, -0.909073880223732, -0.6927636958286423, -0.775607361024594, -0.6874862965639771, -0.8205966781664421},
  {-0.116122902205295, 0.09009551977684449, 0.5408959980444821, -0.8574584450247664, -0.9300936759818462, -0.8748038346177455, -0.8514403755338384, -0.9286857879397242, -0.8908384438705783, -0.8511257780142585, -0.9137450308836502, -0.8127219724966438, 0.8673914514701345, 0.8731424072473647, 0.7793597130347958, -0.8996125043270045, -0.6927998682803165, -0.7752851750902304, -0.685357381618702, -0.8329384305338448},
  {-0.07775751361332811, 0.11205799067484597, 0.344279517950874, -0.8645237284848274, -0.9362661100815898, -0.8789687592594425, -0.8570942015308248, -0.9338211573891755, -0.8776864666246041, -0.8648031691639941, -0.9137450308836502, -0.8127219724966438, 0.8673914514701345, 0.8786018636782156, 0.8453951679859786, -0.919334915294185, -0.6929940207365867, -0.7754750827208293, -0.6892480857471308, -0.8331842709166555},
  {0.050650435122835236, 0.10042524906227757, -0.015177460137844006, -0.8678456521728455, -0.9392173020889356, -0.8965642330412222, -0.859339889227501, -0.9373983118687422, -0.9013079601477845, -0.8648031691639941, -0.9180233725125017, -0.8747146558846673, 0.8933675959341884, 0.8786018636782156, 0.81470852278233, -0.9342755441488108, -0.6931090868847773, -0.7756504246973938, -0.6927055733669621, -0.8355720578685177},
  {0.01332039477573566, 0.31257540707059833, 0.219616169613169, -0.8683484336670602, -0.9297738656917762, -0.8757535113865864, -0.8597859516129864, -0.9280593120512182, -0.8786741901014413, -0.8732469146626856, -0.8767191721582257, -0.8406399274662025, 0.8933675959341884, 0.8853787726882268, 0.81470852278233, -0.9102696807932522, -0.6931137866069327, -0.7732866723632168, -0.6904321327811318, -0.8351242435313565},
  {0.06904131717160963, 0.2536677545183388, 0.07054204287780518, -0.8686729461376835, -0.9188031630580641, -0.8622164553244919, -0.8609432140736225, -0.9183151742835236, -0.8555756700902627, -0.864965388543227, -0.8767191721582257, -0.8406399274662025, 0.8967093002915194, 0.8697985993260294, 0.8167050486262722, -0.911026946966197, -0.6931201042662242, -0.7734670014930646, -0.6901915570577636, -0.8378042939268229},
  {0.10779599328759568, 0.0977907984343083, -0.1482479560262864, -0.8683905549890489, -0.9299563927292966, -0.9062964672551268, -0.8615799878792201, -0.9304178010397106, -0.9102676246556255, -0.857730161809443, -0.8787247433444138, -0.9076997019338758, 0.8799204086089667, 0.8697985993260294, 0.8167050486262722, -0.932796727906079, -0.6931024225246711, -0.7752492359221216, -0.6927108894597259, -0.8391346039216888},
  {-0.017285433063251653, 0.09965975719469342, 0.22677362035885215, -0.867705537489595, -0.9219969087077047, -0.9064956273169644, -0.8616141117106659, -0.9255910699037162, -0.9110238304440822, -0.857730161809443, -0.8727056203508362, -0.8415669742313775, 0.8799204086089667, 0.8569112203365733, 0.8536120995145201, -0.9306442444879418, -0.6930925993349192, -0.7748357771665488, -0.6923293021232221, -0.840390475547769},
  {0.01307216170740299, -0.04243168722363752, 0.09688346616582472, -0.8656087648246918, -0.9255297041988956, -0.8777411947286184, -0.8581076816830122, -0.923859797683858, -0.8840454391104652, -0.8643462809361488, -0.8727056203508362, -0.8415669742313775, 0.8832840345292788, 0.8569112203365733, 0.8218424021707229, -0.9259143938013434, -0.6930670975638775, -0.7751228155444365, -0.6913290657542663, -0.8348953307457856},
  {0.1873058706201448, 0.3562476321583607, -0.813152450277402, -0.4176787927106986, -0.6643036096335867, -0.6846998707660576, -0.4902335354031188, -0.6751585425485522, -0.6639876710375495, -0.6717716393901589, -0.46337931992830017, -0.8671702900271405, -0.2495651572215665, 0.8279546511017166, 0.5606987291207443, -0.6220449252177065, -0.607638514434802, -0.7331260769030428, -0.650032485824389, -0.6023205326682352},
  {0.21817743879088447, -0.14532915405480734, 0.27078345950882327, -0.7172166177839345, -0.904673652367679, -0.9076497190305407, -0.7028817918938939, -0.8995056684256985, -0.9143043204141067, -0.7259339775832363, -0.868433196010916, -0.8587996781282906, 0.7860751326613631, 0.8476641386738315, 0.8459470534516204, -0.8435076994088565, -0.6817943517055668, -0.7733615588236367, -0.6919513639690393, -0.6643838321301139},
  {-0.597963926481909, 0.04546720666784876, 0.1683505419355198, -0.8279835039460067, -0.9374662243584797, -0.9009449183975484, -0.8179355131301528, -0.9439604312253077, -0.9061289954286293, -0.8583696363690367, -0.868433196010916, -0.8587996781282906, 0.7860751326613631, 0.8530868649947787, 0.8424001441608466, -0.9016549991046163, -0.6902685671093814, -0.775732277340178, -0.6924782878755026, -0.7952605055647595},
  {0.07860640342447102, 0.06496112680162207, -0.08853013506583494, -0.8574297178374417, -0.9536929456408577, -0.9248538712372327, -0.8499057228350356, -0.9535803480914871, -0.9326594687394996, -0.8583696363690367, -0.9182441192792227, -0.9062945493721464, 0.8797610165669669, 0.8895807903961944, 0.8370906601085235, -0.9403762784981533, -0.6928926300094237, -0.7762802309120858, -0.6939224630418499, -0.823577496172012},
  {0.20551499026739392, 0.034906736892462015, -0.04955842531210635, -0.8664393571787652, -0.9475002373912088, -0.9216702243192588, -0.8594712435752225, -0.9491118324975356, -0.9318387606306437, -0.8587371597718683, -0.9182441192792227, -0.8924105258354705, 0.8991769476495971, 0.8834461053205213, 0.8370906601085235, -0.9419888234618478, -0.6929855843500944, -0.7761318037310209, -0.6939285450123845, -0.8390603808482577},
  {-0.0529171265231156, -0.029161658536327812, 0.0891886097715091, -0.857640190728903, -0.9536780036520657, -0.9192539336193939, -0.8494026616239767, -0.9541678660332457, -0.9237247019824375, -0.8601949854622919, -0.9290395574264508, -0.8924105258354705, 0.8834187269934156, 0.8834461053205213, 0.8506564313185779, -0.9387092161354552, -0.692866434836752, -0.7762987546242824, -0.6937928494920127, -0.8246589516491052},
  {-0.245947088917321, -0.011638001451965559, 0.08652965785683847, -0.8615731410227228, -0.9476092084599355, -0.9175088108947712, -0.8567131795925593, -0.9483259439014189, -0.9224441944799492, -0.842235649154123, -0.9274446531786735, -0.8747841818397075, 0.8696239302416552, 0.8693880195634215, 0.8383161245553215, -0.9339148433016687, -0.6926698939970911, -0.7761310912805526, -0.6937223887370787, -0.8356359736768568},
  {-0.0807891168945243, 0.00022283409438451178, 0.0487765313919358, -0.8526222932408737, -0.9451232276136208, -0.9183333975648063, -0.8468767198755369, -0.9459703772734324, -0.9244497312468829, -0.842235649154123, -0.9274446531786735, -0.8747841818397075, 0.8696239302416552, 0.8693880195634215, 0.8372524480107726, -0.9361363849180774, -0.6927116521841146, -0.7760536716629088, -0.6938450192837095, -0.8246689090592466},
  {0.10250125595451681, -0.007903294105811389, 0.05563633773946706, -0.8628230522515147, -0.9594971223896677, -0.9282183338985631, -0.8577299377078229, -0.9597615521620776, -0.9335982177851239, -0.8498961025953407, -0.9551094316804073, -0.907420338955449, 0.8855685529459182, 0.8770801835386796, 0.8372524480107726, -0.947973273810049, -0.6930043061940918, -0.7764929369576964, -0.6942468798553285, -0.8397279579184277},
  {0.2382185583363577, 0.045491050178545996, 0.014589451806882543, -0.8674043588941684, -0.9612911757470086, -0.9346324917356286, -0.860872372339232, -0.9597342013373406, -0.9425877789132022, -0.8524073533500464, -0.9498244422758659, -0.8916443110152393, 0.8998998091260079, 0.89464480149958, 0.8457609201302906, -0.9486935944828135, -0.6929575015840977, -0.7765246014229902, -0.694514666765385, -0.8399894341263519},
  {0.17124316993530847, 0.03339545529768482, -0.04023178683228987, -0.8603772520608625, -0.9588479118779729, -0.937655100378607, -0.8544170254139939, -0.9576036976283351, -0.9476442681902613, -0.8524073533500464, -0.9498244422758659, -0.8916443110152393, 0.8853214471468974, 0.8903903662575899, 0.8457609201302906, -0.9474165477272972, -0.6929036859131835, -0.7764779754978447, -0.6945499421944853, -0.834522600663473},
  {-0.22687484694990773, -0.37399959598931837, 0.5174534468442282, -0.7592763624114842, -0.7441755829545456, -0.7517811022873954, -0.7815446518539673, -0.8129879096807363, -0.8006958111613571, -0.6066357745062737, -0.6115917463315116, -0.6337712846125315, 0.6536538744737315, 0.5022136714208538, 0.4277868780735017, -0.8172783655553536, -0.6865151455663884, -0.7498480018634953, -0.6714685036026412, -0.778291248673624},
  {0.4177841541411426, 0.004885673986948598, 0.10435335877083966, -0.8357244223253325, -0.9469211607150557, -0.8764047585784787, -0.8293791888005454, -0.945342584264698, -0.8822851125873836, -0.823266119347246, -0.9427736559018948, -0.8082978348524203, 0.8665928134491665, 0.868467409336509, 0.8384009137734991, -0.9090212281167624, -0.6916519804049321, -0.7761204836846786, -0.691203642006353, -0.8121524714236638},
  {0.4146729853294424, 0.013194267532110011, -0.045150441738861284, -0.8562385535952965, -0.9555666630769247, -0.9182395740192442, -0.8505625417385799, -0.9554780096401639, -0.9239214449267614, -0.823266119347246, -0.929590644820161, -0.8573559340672873, 0.8678166252725905, 0.8861538303956242, 0.8384009137734991, -0.9317871597889881, -0.6923415683255059, -0.7763975477559988, -0.693789110206425, -0.8282767478726002},
  {0.19036095925470986, 0.015354053409611702, 0.0024784891279343345, -0.8548529403931769, -0.9397395355400839, -0.9067109819724604, -0.8512677282843464, -0.9410376179590736, -0.9137740055672487, -0.837601956257611, -0.9078900683668333, -0.8573559340672873, 0.8660064597733504, 0.8651002303547518, 0.8237720368769983, -0.9330415050925863, -0.6927498277960517, -0.7758504649568866, -0.6932955695604512, -0.83399211291022},
  {0.1229883125430439, 0.0069267814242585934, 0.010225613404222431, -0.8535500097860723, -0.938391075765946, -0.9140054282382805, -0.8478345925677732, -0.9375401698333121, -0.9224600363077969, -0.837601956257611, -0.9078900683668333, -0.9012063248524183, 0.8660064597733504, 0.8651002303547518, 0.8237720368769983, -0.9344340515787295, -0.6927730182283285, -0.7757940230475008, -0.6936674707957332, -0.825532781668795},
  {0.08741625764718887, -0.01859023495900727, 0.04874404054638525, -0.8668753240045555, -0.9549227648302198, -0.9347258853362262, -0.8588850777463235, -0.9538559554992225, -0.9399548236564587, -0.8624873970770747, -0.9455904625975661, -0.9022562926893531, 0.8907055425445566, 0.882134706515418, 0.8433313816255972, -0.9485230262441725, -0.693085780885562, -0.7763543257608727, -0.694493132084529, -0.83760202394136},
  {0.033390550758101455, 0.040650229383418876, 0.032942365025855784, -0.8689140182752243, -0.9537294550275865, -0.9385911383377441, -0.8611700774174433, -0.953569996349694, -0.9441764534357616, -0.8624873970770747, -0.93196446980194, -0.9180824487410532, 0.897462087314383, 0.882134706515418, 0.8433313816255972, -0.9512783381334105, -0.6931258440908245, -0.7763265401925776, -0.6946367566924124, -0.8373684553937503},
